//Numpy array shape [29, 10]
//Min -0.500000000000
//Max 0.625000000000
//Number of zeros 47

#ifndef W4_H_
#define W4_H_

namespace hls4ml_axol1tl_v6 {

weight4_t w4[290] = {0.250, -0.500, -0.375, -0.250, 0.125, 0.125, 0.500, -0.375, 0.000, -0.125, -0.250, 0.500, 0.375, -0.250, 0.250, -0.375, -0.250, 0.375, -0.375, 0.250, -0.125, 0.125, 0.375, 0.000, -0.125, 0.250, 0.250, 0.000, 0.000, 0.250, 0.125, 0.000, -0.125, 0.125, 0.000, -0.125, -0.125, -0.125, -0.125, -0.125, -0.375, 0.500, 0.375, -0.375, 0.125, -0.375, -0.250, 0.375, -0.125, -0.125, -0.125, 0.375, 0.125, 0.000, 0.250, -0.250, 0.000, 0.375, 0.000, -0.375, -0.375, 0.250, 0.000, 0.000, 0.000, -0.125, 0.250, -0.125, -0.125, 0.000, -0.250, 0.000, -0.125, -0.375, -0.250, -0.125, -0.125, 0.125, -0.250, -0.250, -0.375, -0.125, 0.250, -0.125, 0.125, 0.125, 0.125, 0.125, -0.250, 0.375, -0.375, 0.500, 0.375, -0.250, 0.250, -0.125, -0.250, 0.125, -0.125, -0.250, 0.000, 0.250, 0.000, -0.125, 0.375, 0.000, -0.125, 0.250, 0.125, -0.125, -0.125, 0.125, -0.250, -0.125, 0.125, -0.500, 0.250, 0.250, 0.125, 0.125, -0.125, 0.250, 0.375, -0.125, -0.125, 0.125, -0.375, 0.250, 0.125, 0.125, 0.000, 0.125, -0.125, 0.125, 0.125, -0.250, -0.250, 0.125, -0.250, 0.000, -0.375, -0.250, -0.250, 0.000, 0.000, 0.000, 0.375, 0.250, 0.125, -0.125, -0.375, 0.000, 0.000, -0.125, 0.000, -0.125, 0.375, 0.000, -0.375, 0.375, -0.250, 0.125, 0.250, -0.375, -0.125, 0.375, -0.125, 0.375, 0.250, 0.250, 0.125, -0.250, -0.125, 0.250, -0.375, 0.250, 0.000, 0.250, -0.250, 0.000, 0.250, 0.000, 0.125, -0.125, 0.125, 0.125, 0.375, 0.250, 0.125, 0.000, 0.250, -0.125, 0.000, -0.125, 0.000, -0.250, -0.250, 0.000, -0.125, 0.250, -0.375, 0.250, 0.125, -0.125, -0.125, -0.125, 0.250, 0.250, 0.125, 0.000, -0.250, 0.125, 0.125, -0.250, 0.375, -0.250, 0.375, 0.000, 0.000, 0.000, -0.250, 0.375, 0.375, 0.125, -0.125, 0.250, -0.125, 0.250, 0.125, 0.000, -0.250, 0.250, 0.250, -0.125, 0.125, 0.125, -0.250, 0.250, -0.125, -0.125, -0.125, -0.125, -0.125, -0.250, -0.375, 0.000, 0.375, -0.125, -0.375, 0.375, 0.000, 0.250, -0.125, 0.000, 0.250, -0.125, 0.000, 0.000, -0.375, -0.375, 0.125, 0.625, 0.250, -0.250, 0.250, 0.000, -0.250, 0.375, -0.250, -0.250, 0.000, -0.375, 0.000, -0.250, -0.250, 0.250, -0.250, -0.125, 0.000, 0.250, 0.250, 0.125, 0.375, -0.250, -0.250, 0.250, 0.375, -0.125, -0.250, 0.250};

}


#endif
