//Numpy array shape [57, 29]
//Min -0.625000000000
//Max 0.625000000000
//Number of zeros 572

#ifndef W2_H_
#define W2_H_

namespace hls4ml_axol1tl_v6 {

weight2_t w2[1653] = {0.125, -0.125, 0.125, 0.125, -0.250, -0.125, 0.125, 0.000, 0.250, -0.250, 0.000, -0.125, 0.000, 0.000, 0.125, 0.000, 0.375, 0.375, -0.125, 0.000, -0.125, -0.250, -0.125, 0.000, 0.375, 0.125, -0.250, 0.250, -0.125, -0.125, 0.000, 0.125, 0.250, 0.375, 0.000, 0.000, 0.125, -0.125, 0.125, 0.125, 0.000, 0.000, 0.000, 0.000, -0.125, 0.125, 0.000, 0.000, 0.000, 0.000, 0.000, 0.125, 0.000, 0.125, 0.000, 0.250, -0.125, 0.125, 0.000, 0.250, -0.125, 0.125, -0.125, 0.000, -0.125, 0.250, -0.125, 0.125, 0.250, -0.125, 0.125, -0.250, 0.000, 0.000, 0.000, 0.125, 0.000, -0.125, 0.000, 0.000, -0.250, -0.125, 0.125, -0.125, 0.125, -0.125, 0.000, 0.000, -0.125, -0.125, 0.000, 0.000, -0.125, 0.125, -0.125, 0.125, 0.250, 0.000, -0.125, -0.125, 0.250, 0.000, -0.250, 0.125, 0.000, 0.125, 0.250, 0.000, 0.000, 0.000, 0.000, 0.125, -0.125, -0.125, -0.250, 0.000, 0.000, 0.125, 0.125, 0.000, 0.125, 0.125, 0.000, 0.000, 0.000, 0.000, 0.250, 0.000, -0.125, 0.000, -0.125, -0.125, 0.000, 0.125, 0.000, -0.125, 0.000, 0.125, -0.125, -0.250, 0.125, -0.125, 0.000, 0.250, 0.000, 0.000, 0.125, 0.125, 0.125, 0.125, -0.125, -0.125, 0.000, -0.125, 0.125, -0.250, 0.000, -0.125, 0.000, 0.125, 0.125, 0.125, -0.125, 0.125, 0.000, 0.000, -0.125, -0.125, 0.125, -0.125, 0.125, -0.125, 0.000, 0.125, 0.125, 0.000, 0.000, 0.000, 0.125, 0.000, 0.000, 0.125, 0.125, 0.000, -0.125, -0.250, -0.250, 0.250, 0.000, 0.000, 0.125, -0.250, 0.125, 0.000, 0.250, 0.000, -0.125, 0.250, 0.000, -0.250, 0.000, 0.000, 0.000, 0.000, -0.125, 0.125, 0.000, -0.125, 0.000, 0.000, 0.000, 0.000, 0.125, -0.125, 0.250, 0.250, 0.000, 0.000, 0.125, -0.250, 0.250, -0.125, 0.000, -0.125, -0.125, 0.125, 0.125, 0.000, 0.125, 0.000, -0.125, 0.125, -0.125, -0.125, 0.000, 0.000, 0.125, 0.000, 0.000, -0.250, 0.000, -0.125, -0.250, 0.000, 0.000, 0.000, 0.000, 0.000, -0.125, 0.125, -0.125, 0.125, -0.125, 0.000, -0.125, 0.000, -0.125, 0.000, -0.125, -0.125, 0.125, -0.125, -0.125, -0.250, -0.125, 0.125, 0.250, 0.000, -0.125, 0.125, -0.125, 0.125, -0.125, -0.125, 0.000, 0.125, 0.125, 0.000, -0.125, -0.125, 0.250, 0.125, -0.125, 0.125, 0.125, 0.125, 0.125, 0.000, 0.125, 0.000, 0.250, 0.125, 0.000, -0.250, -0.125, 0.000, 0.000, 0.000, -0.125, 0.000, -0.125, 0.125, 0.000, 0.125, -0.125, 0.000, 0.000, 0.000, 0.250, 0.000, 0.000, -0.125, 0.000, 0.125, -0.125, 0.250, 0.125, 0.250, 0.000, 0.125, -0.125, 0.125, 0.000, 0.000, -0.250, 0.000, 0.250, 0.125, -0.125, 0.125, 0.000, 0.125, 0.000, -0.125, 0.125, -0.125, 0.000, -0.125, -0.125, 0.000, 0.000, 0.000, -0.125, -0.125, -0.125, 0.125, -0.125, 0.000, 0.125, 0.125, 0.000, 0.125, -0.125, -0.250, 0.125, 0.000, -0.125, 0.000, 0.000, 0.000, 0.125, 0.125, 0.250, -0.125, -0.125, 0.125, 0.000, -0.250, 0.000, 0.125, -0.125, 0.125, -0.125, -0.250, 0.125, 0.125, -0.125, 0.000, 0.000, -0.125, 0.000, 0.125, 0.000, -0.125, -0.125, 0.000, 0.000, -0.250, 0.000, -0.125, 0.000, 0.125, -0.250, 0.125, -0.125, -0.125, 0.125, 0.125, 0.000, -0.125, 0.000, 0.125, 0.000, 0.125, -0.125, -0.125, -0.125, 0.000, 0.125, 0.125, -0.125, 0.000, 0.125, 0.125, 0.125, 0.125, 0.000, 0.125, 0.125, -0.250, 0.000, 0.250, 0.000, 0.125, -0.125, -0.125, -0.125, 0.125, 0.000, 0.000, -0.125, 0.000, 0.000, 0.125, 0.125, 0.125, -0.125, 0.000, 0.250, 0.125, 0.000, 0.125, -0.125, -0.125, -0.125, 0.000, -0.125, 0.125, 0.250, 0.000, 0.125, 0.125, 0.000, 0.000, 0.000, 0.000, 0.125, 0.250, 0.125, 0.000, -0.250, -0.125, -0.125, -0.125, -0.125, -0.250, 0.125, -0.250, -0.250, 0.250, 0.000, 0.125, 0.250, 0.250, 0.125, 0.000, 0.000, 0.000, -0.125, -0.125, -0.125, -0.125, -0.125, 0.125, 0.000, -0.125, 0.125, -0.250, 0.125, 0.000, 0.000, 0.125, 0.125, -0.125, -0.125, 0.000, 0.125, 0.125, 0.000, -0.250, 0.000, -0.125, -0.250, 0.000, -0.125, -0.125, -0.125, 0.000, 0.125, 0.000, -0.125, 0.000, -0.125, -0.125, 0.125, 0.000, 0.000, 0.000, 0.125, 0.125, 0.000, 0.000, -0.125, -0.125, -0.125, 0.000, 0.000, 0.000, -0.125, -0.125, -0.125, 0.000, 0.125, 0.125, 0.125, -0.125, -0.125, -0.125, -0.250, 0.250, 0.000, 0.125, -0.125, -0.125, 0.125, -0.250, 0.125, -0.125, 0.000, -0.250, 0.000, -0.125, 0.000, -0.125, 0.125, -0.125, -0.250, -0.125, -0.250, 0.000, -0.125, 0.000, 0.000, -0.125, 0.125, 0.000, 0.000, -0.125, 0.000, 0.000, -0.250, 0.125, 0.250, 0.125, 0.125, 0.000, 0.000, 0.000, 0.000, -0.125, -0.125, 0.125, 0.000, -0.250, 0.125, 0.125, 0.000, 0.250, -0.125, 0.000, 0.125, 0.125, -0.125, -0.125, 0.125, 0.000, 0.000, -0.125, 0.125, -0.125, -0.125, -0.125, 0.000, 0.125, 0.000, -0.125, -0.125, -0.125, 0.000, -0.125, -0.125, 0.000, -0.125, 0.000, 0.125, -0.125, -0.250, -0.125, 0.000, 0.000, 0.125, -0.250, -0.125, -0.125, 0.000, -0.125, 0.000, 0.000, 0.000, 0.125, 0.000, 0.125, 0.000, 0.000, 0.000, 0.000, 0.125, 0.000, 0.000, 0.000, 0.000, -0.125, 0.125, 0.000, 0.000, 0.125, 0.000, 0.000, -0.125, 0.125, -0.125, 0.125, -0.125, 0.125, 0.125, -0.125, 0.000, -0.125, 0.000, -0.125, -0.125, 0.125, 0.000, 0.000, 0.125, 0.000, 0.000, -0.250, 0.000, 0.125, -0.125, 0.000, -0.125, 0.000, -0.125, -0.125, 0.125, 0.125, 0.125, 0.000, -0.125, 0.000, 0.000, 0.000, 0.000, 0.125, -0.250, -0.125, 0.000, -0.250, -0.125, 0.000, 0.125, 0.000, 0.125, -0.125, -0.125, 0.000, 0.125, 0.125, 0.000, 0.125, 0.000, -0.250, -0.125, 0.000, -0.125, -0.125, 0.000, 0.000, 0.000, 0.000, 0.125, 0.000, 0.000, 0.000, 0.125, 0.000, -0.250, -0.125, 0.000, 0.125, 0.000, 0.000, 0.125, 0.125, 0.125, -0.125, -0.125, 0.125, -0.125, 0.000, 0.125, -0.250, 0.125, 0.125, 0.125, 0.000, 0.000, 0.000, -0.125, 0.250, 0.125, -0.125, 0.125, 0.125, 0.000, -0.125, 0.125, 0.125, 0.000, 0.125, -0.125, -0.125, 0.000, 0.125, 0.000, -0.125, 0.000, 0.000, 0.000, -0.125, -0.125, -0.125, 0.125, 0.000, 0.125, 0.000, 0.000, 0.000, -0.250, 0.125, 0.000, -0.125, 0.000, -0.125, 0.250, 0.000, -0.125, -0.125, -0.125, -0.125, 0.125, 0.375, -0.500, 0.250, 0.125, -0.500, -0.375, -0.250, 0.125, -0.375, -0.375, -0.375, -0.250, -0.125, 0.000, 0.375, 0.000, 0.250, 0.375, -0.125, -0.125, -0.250, -0.375, -0.125, -0.250, 0.125, 0.000, -0.375, 0.125, -0.250, 0.000, 0.250, 0.125, 0.000, 0.125, 0.000, 0.000, 0.250, -0.250, 0.250, 0.125, 0.000, 0.000, -0.125, 0.125, 0.000, 0.250, -0.125, 0.000, 0.000, -0.125, 0.000, 0.250, 0.125, -0.125, 0.000, 0.125, -0.250, 0.000, 0.250, 0.250, 0.125, 0.250, 0.000, 0.375, 0.000, 0.250, -0.125, -0.500, -0.625, 0.000, 0.125, 0.125, 0.000, 0.000, 0.125, 0.000, 0.000, -0.125, 0.000, 0.000, 0.125, -0.125, -0.125, -0.125, 0.250, 0.250, -0.125, 0.375, -0.250, -0.375, -0.250, -0.250, -0.500, 0.000, 0.000, 0.375, -0.375, 0.000, 0.375, 0.000, -0.125, 0.375, 0.375, 0.125, 0.125, 0.250, 0.000, -0.375, 0.000, -0.250, -0.250, -0.125, -0.125, -0.500, 0.000, 0.000, -0.125, 0.125, -0.125, -0.125, 0.125, 0.125, -0.125, 0.250, 0.000, 0.250, -0.125, 0.000, -0.125, 0.125, 0.125, 0.125, 0.000, -0.375, -0.125, -0.125, 0.000, -0.125, 0.000, 0.125, 0.125, 0.125, 0.375, 0.000, -0.125, -0.125, -0.125, 0.000, 0.375, -0.500, -0.125, 0.000, 0.500, 0.000, -0.125, -0.375, -0.125, -0.250, -0.125, 0.000, 0.125, 0.000, 0.125, -0.125, 0.250, 0.000, -0.125, -0.125, 0.375, 0.000, -0.125, -0.500, -0.125, 0.125, 0.375, 0.000, 0.000, -0.125, -0.375, -0.125, -0.125, -0.125, 0.125, -0.125, -0.250, 0.375, -0.125, 0.000, 0.000, 0.250, -0.125, 0.125, 0.250, -0.125, 0.000, 0.250, -0.250, -0.125, 0.500, -0.375, -0.250, 0.000, -0.250, 0.000, 0.250, -0.250, 0.125, 0.125, 0.000, 0.000, 0.000, -0.125, 0.000, 0.250, -0.125, 0.000, 0.000, -0.375, 0.250, 0.250, -0.250, 0.000, 0.000, 0.125, -0.125, 0.125, 0.125, 0.125, 0.125, 0.125, 0.250, -0.250, 0.125, -0.125, -0.125, 0.000, 0.250, -0.500, 0.000, 0.125, -0.125, -0.125, 0.000, 0.125, -0.125, 0.125, 0.000, 0.000, -0.250, 0.125, -0.125, 0.000, -0.125, 0.000, 0.125, -0.250, 0.000, -0.125, -0.500, 0.250, -0.125, 0.500, -0.375, 0.125, 0.000, -0.250, -0.250, 0.000, -0.250, 0.000, -0.250, -0.250, -0.125, -0.375, -0.125, 0.500, -0.250, -0.375, -0.125, 0.125, -0.125, 0.375, 0.250, -0.250, -0.125, 0.625, -0.125, -0.375, -0.250, 0.375, 0.000, 0.125, 0.250, 0.125, 0.000, 0.250, 0.125, 0.250, -0.250, 0.125, 0.000, -0.250, 0.250, 0.125, 0.250, -0.375, -0.125, 0.000, 0.000, 0.000, 0.125, 0.125, 0.125, 0.125, -0.125, 0.250, 0.125, -0.125, 0.250, -0.125, 0.000, 0.000, 0.000, 0.000, -0.125, -0.125, 0.000, 0.000, -0.250, -0.500, 0.000, -0.250, -0.375, 0.125, -0.125, -0.125, 0.000, 0.000, -0.125, -0.125, 0.000, 0.125, -0.375, 0.000, -0.250, 0.000, 0.000, 0.000, 0.250, -0.125, 0.000, -0.125, -0.125, -0.125, -0.125, -0.125, 0.125, -0.125, -0.125, 0.125, 0.000, -0.125, 0.125, 0.125, -0.125, -0.125, 0.125, -0.125, 0.125, 0.250, 0.125, 0.125, 0.000, -0.125, -0.125, -0.250, 0.125, 0.250, 0.125, 0.000, 0.000, 0.000, 0.125, 0.125, 0.250, -0.125, 0.125, 0.000, 0.000, 0.125, 0.000, -0.250, 0.125, 0.125, 0.125, 0.250, 0.000, 0.000, -0.125, 0.000, 0.000, -0.375, 0.125, 0.000, 0.125, 0.125, 0.125, 0.125, 0.125, -0.125, 0.000, 0.000, -0.125, 0.000, -0.125, 0.000, -0.125, -0.125, -0.250, 0.125, 0.000, 0.125, 0.125, -0.125, 0.125, -0.125, -0.125, 0.000, -0.250, -0.125, 0.000, 0.000, 0.000, 0.125, 0.000, 0.250, 0.125, 0.000, -0.125, 0.000, -0.125, -0.125, 0.000, -0.125, -0.125, 0.000, -0.125, 0.000, 0.000, -0.125, 0.000, 0.125, -0.250, 0.375, 0.000, -0.250, 0.125, -0.125, 0.000, 0.125, 0.000, 0.000, 0.000, 0.250, 0.125, 0.250, -0.125, 0.000, 0.000, 0.250, 0.125, 0.000, -0.250, 0.000, 0.000, 0.125, 0.125, 0.125, 0.000, -0.125, 0.125, 0.125, -0.125, -0.125, -0.125, 0.000, -0.125, 0.125, 0.000, -0.125, 0.000, 0.125, 0.125, 0.000, 0.000, -0.125, 0.125, -0.125, 0.000, -0.125, -0.125, 0.000, 0.125, 0.125, -0.125, -0.250, -0.125, -0.125, 0.000, 0.125, 0.000, 0.250, 0.125, -0.125, -0.125, 0.125, 0.000, 0.125, 0.000, -0.125, -0.125, 0.125, 0.000, 0.000, 0.000, 0.000, -0.125, -0.125, 0.000, 0.125, 0.000, 0.000, -0.125, -0.125, 0.000, 0.000, 0.000, 0.000, 0.125, -0.250, 0.250, 0.000, -0.125, 0.125, 0.000, 0.000, 0.000, 0.000, 0.125, -0.125, 0.250, 0.125, 0.000, 0.250, 0.125, 0.125, 0.000, 0.000, 0.000, 0.000, 0.000, 0.000, 0.125, 0.250, 0.000, 0.125, 0.000, -0.125, -0.250, 0.000, 0.000, 0.000, -0.250, 0.000, 0.125, -0.125, -0.125, 0.000, 0.000, -0.250, 0.000, -0.125, 0.000, 0.000, 0.125, 0.125, -0.125, -0.125, 0.000, 0.125, 0.125, 0.125, -0.125, 0.125, -0.125, -0.125, 0.125, -0.125, 0.125, 0.000, -0.125, 0.125, 0.250, -0.125, 0.125, 0.000, -0.125, 0.000, 0.125, -0.125, -0.125, 0.125, 0.250, 0.000, 0.125, -0.250, -0.250, -0.125, 0.125, 0.125, -0.125, -0.125, 0.125, 0.000, 0.125, -0.125, -0.125, 0.000, 0.000, 0.000, 0.125, 0.250, -0.125, 0.125, -0.125, -0.125, -0.125, 0.000, 0.125, 0.000, -0.125, 0.125, 0.000, 0.000, 0.125, 0.125, -0.250, 0.000, 0.000, -0.125, 0.000, -0.125, 0.125, 0.000, -0.125, 0.000, 0.000, 0.125, -0.125, 0.000, 0.250, 0.125, 0.000, -0.125, 0.125, 0.000, 0.125, 0.000, 0.000, 0.000, -0.250, 0.000, 0.125, 0.125, 0.125, -0.125, 0.000, 0.125, -0.125, 0.000, -0.125, -0.125, 0.125, 0.000, 0.125, 0.125, 0.125, -0.125, 0.000, -0.125, 0.000, 0.125, 0.000, 0.125, 0.000, 0.125, 0.000, -0.125, 0.000, -0.125, 0.000, 0.000, 0.000, -0.250, 0.000, 0.000, 0.000, 0.000, 0.125, 0.125, -0.125, -0.125, 0.000, -0.125, 0.000, 0.000, 0.000, -0.125, -0.125, -0.125, 0.000, 0.000, 0.000, -0.125, 0.125, -0.125, -0.125, 0.000, 0.000, 0.000, 0.000, -0.125, 0.000, -0.125, 0.125, -0.125, 0.000, -0.125, 0.125, 0.000, 0.000, -0.125, 0.000, 0.125, 0.000, 0.125, -0.125, 0.250, -0.125, 0.125, 0.125, 0.125, 0.000, -0.125, 0.000, 0.125, 0.000, 0.000, -0.125, -0.125, -0.125, 0.000, 0.000, 0.000, 0.125, 0.125, -0.125, 0.125, -0.125, -0.125, -0.125, -0.125, -0.125, -0.250, -0.125, 0.000, 0.000, 0.125, 0.125, -0.125, 0.000, 0.000, 0.125, 0.000, -0.125, 0.125, -0.125, 0.000, 0.000, 0.125, -0.125, -0.125, 0.000, 0.000, 0.125, 0.125, 0.000, 0.000, 0.000, -0.125, -0.125, -0.125, 0.000, -0.125, -0.125, -0.125, 0.125, 0.000, 0.000, 0.000, 0.000, 0.000, 0.000, 0.000, -0.125, -0.125, 0.250, 0.000, 0.000, 0.000, 0.000, -0.125, 0.000, -0.125, 0.000, 0.000, 0.000, 0.125, 0.125, 0.000, 0.125, 0.000, 0.000, 0.000, 0.000, 0.125, -0.125, 0.125, 0.125, 0.000, 0.000, 0.000, 0.000, 0.125, 0.000, 0.000, 0.125, 0.125, -0.125, 0.000, 0.000, -0.125, 0.125, 0.125, 0.000, 0.000, 0.125, -0.125, 0.000, 0.000, -0.125, 0.000, 0.000, 0.000, 0.250, -0.125, 0.125, -0.125, 0.125, -0.125};

}


#endif
