#ifndef AXOL1TL_V3_WEIGHTS_H_
#define AXOL1TL_V3_WEIGHTS_H_
#include "defines.h"

weight2_t w2[1824] = {0.125, 0.000, 0.125, 0.000, -0.125, 0.000, 0.000, 0.125, 0.000, -0.125, 0.000, 0.000, 0.000, 0.125, -0.125, 0.125, 0.125, -0.125, 0.000, 0.000, -0.125, 0.125, -0.125, -0.125, 0.000, 0.000, 0.000, 0.000, 0.000, 0.000, 0.125, 0.000, -0.250, 0.000, -0.125, -0.250, 0.125, -0.125, 0.125, 0.125, -0.250, 0.000, -0.125, 0.000, 0.250, 0.000, 0.000, -0.125, -0.250, 0.125, 0.000, 0.000, -0.250, -0.250, 0.125, 0.250, 0.000, -0.125, -0.250, -0.250, 0.125, 0.125, -0.125, 0.125, 0.000, 0.000, -0.125, 0.000, 0.000, 0.000, 0.000, 0.000, 0.000, 0.000, 0.000, 0.000, 0.000, -0.125, 0.000, 0.000, 0.000, 0.000, 0.000, 0.000, 0.000, 0.000, 0.000, 0.000, 0.000, 0.000, 0.000, 0.000, 0.000, 0.000, -0.125, 0.000, 0.125, 0.000, 0.250, 0.125, 0.000, 0.125, -0.125, 0.125, -0.250, 0.375, 0.500, 0.125, -0.125, 0.000, -0.250, 0.375, 0.250, -0.125, -0.125, 0.000, -0.250, 0.125, 0.000, 0.250, 0.000, 0.000, 0.250, -0.125, 0.500, -0.125, 0.250, -0.250, 0.125, 0.000, -0.125, 0.250, 0.375, -0.375, -0.125, 0.125, -0.375, -1.125, -0.875, 0.000, -0.250, 0.250, 0.125, -0.375, -0.250, 0.250, 0.000, -0.125, 0.125, 0.000, 0.000, 0.500, -0.250, -0.125, 0.375, 0.000, 0.875, 0.125, 0.125, -0.125, 0.000, 0.000, 0.000, 0.000, 0.000, 0.000, 0.000, -0.125, 0.000, 0.000, -0.125, 0.000, 0.125, 0.000, 0.000, 0.000, 0.000, 0.000, 0.125, 0.000, 0.000, 0.000, 0.000, 0.000, 0.000, 0.000, 0.000, 0.000, 0.000, 0.125, 0.000, 0.000, 0.125, 0.000, -0.125, -0.375, -0.125, -0.125, 0.125, -0.125, 0.000, 0.125, -0.125, -0.125, 0.750, -0.125, 0.000, 0.000, -0.250, -0.125, 0.000, 0.000, -0.500, -0.250, 0.125, 0.375, -0.125, 0.375, 0.125, -0.125, -0.125, 0.000, 0.000, 0.125, -0.625, 0.125, 0.000, 0.875, -0.750, 0.250, 0.250, 0.125, 0.125, -0.125, 0.000, 0.000, -1.625, 0.250, -0.125, -0.125, 0.250, 0.125, 0.125, -0.375, 0.000, 0.250, 0.125, 1.125, 0.125, 1.000, -0.375, -0.625, 0.125, 0.000, 0.250, 0.500, 0.000, 0.000, 0.000, 0.125, 0.000, 0.000, 0.125, 0.000, 0.000, 0.000, 0.000, -0.125, -0.125, 0.000, 0.000, 0.125, 0.000, 0.000, 0.000, 0.000, 0.000, 0.125, -0.125, 0.000, 0.000, -0.125, 0.125, 0.000, 0.000, 0.000, 0.125, 0.000, 0.375, -0.250, -1.000, -0.750, -0.125, -0.750, 0.000, -0.375, -0.125, 0.125, 0.000, -0.125, 0.125, -0.500, 0.125, -0.625, -1.125, -0.375, 0.250, 0.000, -0.375, -0.625, 0.375, 0.125, -0.500, -0.125, 0.250, 0.000, 0.125, 0.250, -1.125, 0.375, -1.125, 0.125, 0.000, -0.125, -0.250, -0.250, 0.250, -0.125, -0.125, -0.125, 0.125, -0.250, 0.000, 0.000, 0.000, 0.000, 0.000, 0.000, 0.125, 0.000, 0.000, -0.250, -0.125, -0.500, 0.000, 0.250, 1.250, 0.000, 0.000, -0.125, 0.375, 0.250, 0.000, 0.125, 0.000, 0.125, 0.000, 0.000, 0.000, 0.125, 0.000, 0.000, 0.125, 0.000, 0.000, 0.000, -0.125, 0.125, 0.250, 0.000, 0.000, -0.125, 0.000, 0.125, -0.125, 0.000, 0.000, 0.000, 0.000, 0.125, 0.000, -0.125, 0.125, 0.000, 0.250, 0.000, 0.125, 0.125, -0.125, 0.125, 0.375, 0.000, 0.125, 0.125, -0.125, 0.500, -0.125, 0.000, 0.000, 0.000, 0.000, 0.000, 0.125, -0.125, -0.250, 0.000, 0.000, 0.250, 0.750, -0.125, 0.125, -0.250, -0.250, 0.125, 0.000, 0.000, 0.375, 0.000, -0.125, 0.000, 0.000, -0.125, -0.625, 0.000, -0.125, 0.000, 0.000, -2.500, 0.000, 0.000, -0.125, 0.000, 0.000, -0.125, 0.375, -0.125, -0.125, 0.000, 0.000, 0.000, 2.875, 0.000, 0.000, 0.000, 0.000, 0.000, 0.125, 0.375, 0.125, 0.000, 0.250, 0.125, 0.000, 0.250, 0.000, 0.125, 0.125, 0.000, 0.125, -0.125, -0.125, 0.125, -0.125, 0.250, 0.250, 0.125, 0.000, -0.125, 0.000, 0.125, -0.125, 0.000, 0.000, 0.000, 0.125, 0.125, -0.125, -0.125, 0.375, 0.000, -0.125, -0.125, 0.000, 0.000, 0.000, -0.250, 0.000, 0.625, 0.000, 0.250, -0.250, 0.000, -0.125, -0.125, 0.000, 0.000, -0.250, -0.125, -0.125, -0.125, -0.125, 0.875, 0.125, -0.125, -0.125, 0.000, 0.000, -0.125, 0.000, -0.125, -0.250, 0.250, 0.000, 0.000, 0.000, 0.125, -0.250, 0.500, 0.000, -2.750, 0.000, 0.250, -0.250, 0.000, 0.000, -0.375, 0.125, -0.125, -0.125, 0.000, 0.000, 0.125, 0.000, 2.500, 0.375, 0.000, -0.125, 0.000, -0.125, -0.125, -0.125, 0.000, 0.000, -0.375, 0.125, 0.125, 0.375, 0.375, 0.125, 0.500, -0.125, 0.000, 0.125, 0.000, 0.125, 0.125, 0.000, 0.250, -0.250, 0.375, 0.625, 0.250, -0.125, -0.125, 0.000, 0.000, -0.250, 0.000, 0.250, 0.250, 0.000, 0.000, -0.125, 0.000, 0.625, -0.125, 0.375, 0.000, 0.000, 0.000, 1.125, 0.000, -0.125, 0.125, 0.000, 0.500, -0.250, 0.000, -0.125, 0.000, 0.125, 0.000, -0.250, 0.000, -0.125, 0.125, 0.625, 0.000, 0.250, -0.500, 0.000, -0.250, 0.250, -0.125, -0.125, 0.125, -0.125, -0.250, 0.000, 0.000, 0.000, 0.000, 0.000, 0.000, 0.000, 0.000, 0.000, 0.125, 0.000, 0.000, 0.000, 0.000, 0.000, 0.000, 0.000, 0.000, 0.000, 0.000, -0.250, 0.000, -0.125, 0.000, 0.000, 0.000, 0.125, 0.000, 0.000, 0.000, 0.000, 0.000, -0.125, -0.125, 0.000, -0.125, 0.125, 0.000, 0.000, 0.000, 0.000, -0.125, 0.000, 0.125, 0.000, 0.000, 0.000, -0.125, 0.000, 0.000, 0.000, 0.000, -0.125, 0.000, 0.000, 0.125, 0.000, 0.000, -0.250, 0.000, 0.000, 0.000, -0.125, 0.125, -0.625, -0.500, 0.000, -0.375, 1.125, -0.250, -0.125, 0.125, -0.250, -0.625, -0.750, -2.125, -0.375, -0.375, -0.250, -0.125, 0.125, -0.375, -0.125, -0.375, -0.375, 0.375, -0.375, 1.250, -0.125, 0.125, -0.375, -0.125, 0.750, -0.125, -0.125, 0.875, 0.000, 0.000, 0.000, 0.000, 0.000, 0.000, 0.000, 0.000, 0.000, -0.125, 0.000, 0.250, 0.000, 0.000, -0.125, 0.000, 0.000, 0.125, 0.000, 0.000, 0.000, 0.000, 0.000, -0.375, 0.000, 0.000, 0.000, 0.000, 0.125, 0.000, 0.000, 0.125, 0.000, 0.125, -0.125, 0.000, 0.125, 0.000, 0.000, -0.125, 0.000, -0.125, 0.000, -1.500, 0.000, 0.000, 0.000, 0.000, -0.125, -3.000, 0.000, -0.125, 0.000, -0.125, 0.000, -0.250, 0.125, -0.125, 0.000, 0.000, 0.000, 0.000, 0.125, 0.000, 0.000, 0.000, 0.125, 0.250, 0.250, 0.375, 0.125, -0.250, -0.125, 0.250, -4.000, -4.000, -3.375, 0.250, 0.125, -2.250, -4.000, -4.000, 0.125, 0.375, -0.125, 0.125, -2.125, 0.125, -0.125, 0.125, -3.625, 0.250, 0.125, 0.125, 0.250, -0.375, 0.250, 0.000, 0.000, 0.000, 0.000, 0.000, 0.000, 0.000, 0.000, 0.000, -0.250, -0.500, 0.750, 0.000, 0.000, -0.750, -0.500, -1.625, 0.000, 0.000, 0.000, 0.000, 0.125, 0.000, -0.125, -0.125, 0.125, 0.000, 0.000, 0.000, 0.000, 0.375, -2.000, 0.000, 0.000, 0.000, 0.000, -0.125, 0.000, 0.125, 0.000, -0.125, -4.000, -4.000, -3.125, 0.000, 0.000, -2.375, -4.000, -4.000, 0.000, -0.250, 0.125, 0.000, -3.250, 0.000, 0.125, 0.000, -3.250, 0.000, 0.000, 0.000, 0.000, -0.250, 0.000, -0.125, -0.125, -0.250, -0.125, -0.250, 0.000, -0.250, 1.000, -0.500, 0.500, -0.125, 0.000, -0.125, 0.625, -0.250, -0.125, 0.625, 0.000, -0.125, -0.250, -0.375, 0.500, -0.125, -0.125, -0.125, 0.000, -0.125, 0.375, -0.125, -0.250, 0.250, 0.250, 0.375, 0.250, -0.125, -0.375, 0.250, 0.125, 0.125, 3.875, 0.375, -1.500, 0.000, 0.125, 0.250, -2.000, 1.375, 0.000, -4.000, 0.500, 0.000, 0.000, 0.250, -1.250, 0.125, 0.000, -0.125, 0.125, 0.250, 1.500, -0.250, 0.000, -0.750, 0.125, 0.000, -0.125, -0.125, -0.125, 0.000, -0.125, 0.125, 0.000, 0.000, 0.000, 0.000, 0.000, 0.000, 0.125, -0.125, -0.125, 0.000, 0.000, 0.000, 0.000, 0.125, 0.000, -0.125, 0.000, 0.000, 0.000, 0.000, 0.000, 0.000, -0.125, 0.000, 0.000, 0.875, -0.125, -0.250, -0.250, -0.250, 0.000, -0.125, 0.000, -0.375, 0.000, -0.125, 0.125, -0.125, 0.375, 0.375, -0.125, -0.125, 0.125, 0.000, -0.250, -0.125, 0.000, -0.250, 0.000, -0.125, -0.125, 0.000, 0.125, 0.500, -0.250, 0.125, 0.000, -3.375, 0.000, -0.125, -0.125, 0.125, 0.000, 0.000, 0.000, 0.125, 0.000, 0.000, 0.000, -0.375, 1.125, 3.250, 0.125, -0.125, 0.000, -0.125, 0.125, 0.000, -1.375, 0.000, 0.125, 0.000, 0.000, -0.125, 0.000, 1.750, 0.000, 0.375, 0.125, 0.000, -0.125, 0.000, -0.125, -0.125, -0.125, 0.250, 0.000, 0.000, 0.000, 0.000, 0.000, -0.125, 0.125, -0.125, -0.125, 0.000, 0.000, 0.000, 0.000, 0.250, 0.000, 0.000, 0.000, 0.125, 0.000, 0.000, 0.000, 0.125, -0.125, -0.125, 0.000, 0.125, -0.375, 0.000, -0.250, 0.875, -0.125, -0.375, -0.125, -0.250, 0.125, 0.000, 0.000, 1.000, -0.125, -0.250, -0.625, -0.125, 0.125, 0.750, -0.250, -0.625, 0.000, -0.125, -0.125, 0.000, 0.000, -0.250, 0.250, 0.375, -0.375, 0.125, 0.000, 0.500, 0.000, -0.500, 0.250, 3.375, 0.000, -0.125, -0.125, 0.250, -0.375, 0.000, 0.000, -3.250, 0.625, 0.500, -0.500, -0.125, -0.125, 1.375, -0.125, 0.375, -0.625, 0.000, 0.000, 0.000, -0.250, -0.125, 0.500, -1.375, -0.125, 0.750, 0.125, 0.000, 0.000, 0.000, 0.000, 0.000, 0.000, 0.125, 0.000, 0.000, 0.000, 0.000, 0.000, 0.000, 0.125, 0.000, 0.000, 0.000, 0.000, 0.000, 0.000, 0.250, 0.000, 0.000, 0.125, 0.000, 0.000, 0.000, 0.000, 0.000, 0.000, 0.000, -0.125, 0.000, -0.125, 1.250, -0.375, -0.375, -0.125, -0.500, 0.000, -0.250, -0.125, 0.000, 0.625, 0.000, 0.125, -0.125, 1.375, 0.000, -0.125, 0.625, -0.250, -0.500, 0.000, -0.500, 0.125, 0.000, -0.250, 0.500, 0.000, 0.000, -0.375, 0.125, 0.125, -0.125, 0.000, -1.875, 0.125, -0.250, -0.125, 0.000, 0.125, 0.125, 0.000, 0.000, -0.750, 0.000, -0.125, -0.125, 2.125, 0.000, -0.125, 0.875, 0.125, -0.125, 0.125, -0.250, -0.125, 0.000, 0.125, 0.500, -0.250, 0.250, 0.000, 0.000, 0.000, 0.000, -0.125, 0.000, 0.000, 0.125, 0.000, 0.125, 0.000, 0.000, 0.000, 0.000, 0.000, 0.000, 0.000, 0.000, 0.000, 0.000, 0.000, 0.000, 0.000, 0.250, 0.000, 0.000, 0.000, 0.125, 0.000, 0.125, -0.125, 0.000, -0.125, -0.125, -0.250, 0.000, 1.125, -0.125, -0.250, 0.000, 0.000, -0.125, 0.000, -0.250, 0.000, 0.000, 0.250, 0.000, 0.000, 0.000, 0.125, 0.000, 0.125, 0.125, -0.250, -0.250, 0.000, -0.250, 0.000, 0.125, -0.250, 0.125, 0.000, 0.000, 1.250, 0.000, 0.125, -0.125, 0.875, -0.125, -0.125, 0.000, 0.000, 0.000, 0.000, 0.000, 0.000, 0.000, 0.125, 0.000, 0.000, 0.000, 0.000, 0.000, 0.000, -0.125, 0.000, 0.000, 0.000, 0.000, 0.000, 0.000, -0.125, 0.000, 0.000, 0.000, -0.875, 0.000, 0.000, 0.000, -0.125, 0.000, 0.125, 0.125, 0.000, 0.250, 0.000, 0.000, 0.000, 0.000, 0.000, 0.000, 0.000, 0.125, 0.125, 0.125, 0.000, -0.125, 0.125, 0.375, 0.000, 0.000, 0.125, 0.125, 0.000, 0.125, 0.000, 0.000, -0.125, -0.125, -0.125, 0.125, 0.125, 0.000, -0.625, 0.125, 0.000, 0.250, 0.125, -0.125, 0.125, 0.125, 0.000, 0.125, 0.000, 0.250, 0.125, 0.125, 0.125, 0.000, -0.125, 0.375, -0.250, -0.125, 0.125, 0.125, -0.125, 0.250, -0.125, -0.125, 0.125, -0.250, 0.000, 0.000, 0.000, 0.000, 0.000, 0.125, 0.000, 0.000, 0.000, 0.000, 0.000, 0.000, 0.000, 0.000, 0.000, 0.000, 0.125, 0.000, 0.000, 0.000, 0.000, 0.000, 0.000, 0.000, 0.125, 0.000, 0.000, -0.125, 0.000, 0.000, 0.000, 0.000, 0.000, 0.000, -0.125, 0.000, 0.000, 0.000, -0.125, -0.125, 0.000, 0.000, 0.000, 0.000, 0.000, -0.125, 0.125, 0.000, 0.000, -0.125, 0.000, 0.000, 0.000, -0.125, 0.000, 0.000, 0.000, 0.000, 0.000, 0.000, 0.000, 0.000, -0.125, 0.000, -0.375, 0.000, -0.125, 0.000, -2.250, 0.000, 0.375, -0.375, 0.000, -0.250, -0.125, -0.750, 0.125, 0.000, 0.000, 0.000, -0.125, -0.125, 0.375, 0.000, -0.375, -0.750, 0.125, -1.125, -0.875, -0.250, -0.750, 0.375, 0.000, 0.125, 0.000, 0.125, 0.000, -0.125, 0.000, 0.000, -0.125, 0.000, -0.375, 0.000, 0.000, 0.000, 0.000, 0.125, 0.000, 0.000, 0.000, 0.000, 0.000, 0.000, 0.250, 0.000, 0.000, 0.000, 0.000, 0.000, -0.125, 0.000, 0.000, -0.125, 0.000, 0.000, 0.000, 0.000, 0.000, 0.000, 0.000, 0.000, 0.125, 0.000, -0.125, -0.125, 0.000, 0.000, 0.000, 0.000, -0.125, 0.000, 0.000, 0.000, -0.125, 0.000, 0.000, 0.000, 0.000, -0.125, 0.000, 0.000, 0.125, 0.000, 0.000, 0.125, 0.000, 0.000, 0.000, 0.000, -0.625, 0.000, 0.000, 0.125, -1.500, 0.125, 0.125, -0.125, -0.750, -0.125, -0.125, -0.250, -0.125, 0.000, -0.625, 0.000, 0.000, -0.375, 0.000, 0.000, -0.125, -1.750, 0.375, 0.000, -1.000, 0.625, -3.375, 0.125, -0.125, 0.125, 0.000, 0.000, 0.125, 0.125, 0.125, 0.000, 0.500, -0.125, 0.000, -0.125, -0.125, 0.000, 0.000, 0.000, 0.000, 0.000, 0.125, 0.125, 0.000, 0.000, 0.000, 0.125, 0.000, -0.250, -0.375, 0.250, 0.000, 0.500, 0.125, -0.125, 0.000, -0.125, 0.000, 0.000, 0.000, 0.000, 0.000, 0.125, 0.000, 0.000, -0.125, -0.125, 0.000, 0.000, 0.000, -0.125, 0.000, 0.000, 0.125, 0.000, 0.000, 0.000, 0.000, 0.000, 0.000, -0.250, 0.000, -0.375, 0.000, 0.000, -3.750, 0.125, -0.125, 0.000, 0.000, 0.000, -4.000, 0.125, 0.125, 0.125, -4.000, 0.000, 0.000, -4.000, -0.375, 0.750, -0.625, -4.000, -4.000, 0.000, -0.375, -0.625, 0.000, -3.875, 0.125, 0.000, 0.000, -1.250, 0.000, -4.000, -2.375, 0.125, -4.000, 0.250, 0.500, 0.250, 0.000, -1.000, -0.625, 0.000, 0.000, 0.000, -0.875, 0.000, 0.000, -0.625, 0.000, -0.625, 0.375, 0.000, -0.375, 0.000, -0.125, -0.125, -0.125, -0.250, 0.125, 0.125, 0.000, 0.375, -0.125, 1.000, -0.125, -0.125, -2.625, 0.125, 0.625, 0.250, -0.125, -0.250, -4.000, 0.000, -0.125, 0.000, -3.875, 0.000, 0.000, -4.000, 0.000, -0.125, -0.125, -4.000, -4.000, 0.000, 0.000, 0.125, 0.000, -4.000, 0.000, 0.000, 0.000, -0.625, 0.000, -4.000, -2.125, 0.000, -4.000, 0.125, -0.125, 0.000, -0.125, -1.500, -4.000, -0.125, 0.000, 0.125, -4.000, 0.125, 0.125, -4.000, -3.125, 0.000, -3.875, -4.000, -4.000, 0.000, -1.375, -0.750, -1.875, -4.000, 0.250, -0.250, 1.000, -4.000, 0.125, -3.875, -2.750, 0.250, 3.875, 0.625, -0.125, 0.125, 0.000, -4.000, 3.000, 0.000, 0.000, 0.375, 3.875, -0.125, 0.000, 1.750, 0.500, 0.125, -0.750, 3.875, 0.875, 0.000, -0.500, 0.000, 0.375, -0.125, -0.125, -0.125, 0.625, -1.125, -0.125, 3.500, 2.375, -0.125, 3.875, -0.125, 0.000, -0.125, 0.000, 1.125, -4.000, 0.000, -0.125, 0.000, -4.000, 0.000, 0.000, -4.000, -3.250, 0.000, -3.875, -4.000, -4.000, -0.125, -1.375, 0.000, 0.125, -4.000, 0.000, -0.125, 0.000, -4.000, 0.000, -4.000, -2.375, 0.000, -4.000, 0.000, 0.000, 0.000, 0.000, -4.000};
bias2_t b2[32] = {0.750, -1.375, -1.375, -1.250, 0.625, -1.625, -0.375, -1.875, -2.000, 0.000, 0.125, -0.375, -0.875, -2.250, -0.875, -1.125, -0.875, -1.750, -0.250, -1.125, 0.125, -0.500, -0.875, 0.000, -0.750, 0.375, 1.000, -0.250, -0.625, -1.250, -1.750, -0.250};
weight4_t w4[512] = {0.125, -4.000, -4.000, 0.000, 0.000, -0.125, -0.125, 0.375, 0.125, 0.000, -0.125, -0.125, 0.500, -0.125, -0.125, -4.000, 0.125, -4.000, -3.125, 0.000, 0.125, 0.750, -0.875, 0.125, 0.000, 0.000, 0.000, 0.000, 0.000, -0.125, -0.125, -4.000, 0.250, -4.000, -4.000, -0.125, 0.125, 0.000, -0.125, -0.125, 0.000, 0.125, 0.000, 0.125, -0.375, 0.375, -0.125, -4.000, -0.125, -4.000, -4.000, 0.375, 0.250, 0.000, 0.000, 0.000, 0.000, 0.125, -0.125, 0.375, -0.125, 0.000, -0.250, -4.000, 0.000, -4.000, -4.000, -0.250, 0.000, 0.000, 0.000, -0.125, -0.125, 0.000, 0.000, 0.375, 0.250, -0.500, -0.500, -4.000, 0.125, -4.000, -4.000, 0.125, 0.000, -0.125, 0.000, 0.250, 0.125, -0.375, -0.125, 0.250, -0.125, 0.125, -0.250, -4.000, 0.000, -4.000, -4.000, 0.000, 0.000, -0.125, 0.000, -0.125, 0.375, -0.125, 0.000, -0.125, -0.125, 0.125, 0.000, -4.000, -0.125, -4.000, -4.000, -0.125, 0.250, -0.125, 0.000, 0.250, 0.250, -0.625, 0.000, 0.500, -0.125, 0.250, -0.250, -1.000, 0.500, -4.000, -1.375, 0.250, 0.625, -0.250, -0.125, -0.375, -0.125, 0.000, 0.000, -0.125, 0.375, -0.625, 0.125, -4.000, -0.250, -4.000, -3.125, -0.250, 0.375, -0.250, 0.000, 0.250, 0.000, 0.125, 0.000, 0.000, 0.000, 0.125, 0.250, -4.000, -0.250, -4.000, -4.000, -0.125, 0.250, -0.250, 0.000, 0.250, 0.000, 0.250, -0.125, -0.125, -0.125, -0.125, 0.000, -4.000, 0.000, -4.000, -1.125, 0.000, 0.000, 0.000, -0.125, -0.250, 0.625, -0.125, 0.000, 0.000, 0.250, -0.125, -0.125, 0.125, 0.125, -4.000, 0.625, 0.125, 0.125, -0.125, -0.125, 0.125, 0.125, 0.250, -0.375, 0.250, 0.250, -0.125, -0.250, -4.000, -0.125, -4.000, -3.250, 0.125, 0.000, 0.125, -0.125, -0.125, 0.000, 0.625, -0.125, -0.375, 0.250, -0.250, 0.250, -4.000, 0.000, -4.000, -4.000, 0.000, -0.250, -0.250, 0.250, 0.250, 0.125, 0.125, 0.000, 0.125, 0.000, 0.125, -0.125, -4.000, 0.000, -4.000, -1.000, 0.125, -0.125, -0.625, 0.625, -0.125, 0.000, 0.000, 0.000, 0.000, 0.000, -0.125, -0.125, -4.000, 0.250, -4.000, -2.625, -0.250, -0.125, 0.000, 0.000, 0.125, 0.125, 0.000, 0.000, -0.375, 0.000, -0.125, 0.250, -4.000, -0.250, -4.000, -4.000, -0.375, -0.250, 0.000, 0.000, 0.625, 0.250, 0.250, 0.125, 0.125, -0.125, 0.125, -0.375, -4.000, 0.125, -4.000, -3.625, 0.125, 0.125, 0.000, 0.000, 0.250, -0.250, 0.125, -0.125, -0.125, -0.250, 0.125, 0.000, -3.250, 0.375, -4.000, -4.000, 0.000, 0.000, 0.000, 0.000, 0.250, 0.125, 0.000, -0.125, 0.125, 0.125, -0.125, 0.125, -4.000, -0.125, -4.000, -2.250, 0.375, 0.125, 0.000, -0.250, -0.125, -0.125, -0.125, 0.500, 0.000, 0.125, 0.125, -0.250, -4.000, 0.000, -4.000, -1.375, -0.125, -0.125, 0.125, -0.250, -0.250, 0.000, 0.500, 0.250, -0.125, 0.000, -0.250, -0.125, -4.000, 0.000, -4.000, -4.000, 0.000, 0.000, 0.250, -0.125, 0.250, 0.125, 0.125, 0.000, 0.000, 0.125, 0.250, 0.125, -4.000, 0.250, -4.000, -4.000, -0.250, -0.125, 0.000, 0.000, 0.125, 0.000, -0.125, 0.375, -0.250, 0.125, -0.125, 0.375, -4.000, 0.125, -4.000, -4.000, -0.125, 0.000, 0.000, -0.125, 0.250, -0.625, 0.125, 0.000, 0.000, 0.000, -0.125, 0.000, -1.125, 0.125, -4.000, -4.000, 0.125, 0.250, -0.125, 0.000, -0.125, 0.000, -0.125, 0.125, -0.250, -0.375, 0.125, 0.250, -3.375, 0.500, -4.000, -3.000, -0.250, 0.125, -0.125, -0.250, -0.125, 0.125, 0.375, 0.000, 0.375, -0.125, -0.875, -0.375, -4.000, 0.125, -4.000, -1.125, 0.125, 0.000, 0.000, 0.000, 0.000, 0.250, 0.125, -0.375, -0.250, -0.250, 0.125, 0.125, -4.000, 0.250, -4.000, -4.000, 0.375, -0.125, 0.125, -0.250, 0.000, 0.125, 0.000, 0.125, 0.125, 0.125, 0.000, -0.125, -4.000, 0.000, -4.000, -4.000, 0.125, -0.125, -0.375, 0.500, 0.000, 0.125, 0.125, 0.000, 0.000, 0.125, 0.125, 0.125, -4.000, -0.125, -4.000, -4.000, 0.375, -0.125, 0.000, 0.000, 0.375, 0.000, -0.125, -0.125, -0.250, 0.375, -0.375, 0.250, -4.000, 0.125, -4.000, -2.625, 0.000, 0.125, -0.250, 0.250, 0.250, 0.125, 0.125, 0.250, 0.125, -0.125, 0.000, 0.000, -4.000};
bias4_t b4[16] = {0.500, 0.250, 0.750, 1.750, 0.625, -1.125, -0.875, 1.250, 1.250, 0.875, 0.750, -0.125, 0.750, 0.250, 0.750, -0.125};
weight6_t w6[128] = {-0.250, -0.500, 0.500, 0.000, 0.250, 0.000, -0.125, 0.000, 3.125, 3.250, 3.250, -3.250, 3.250, -4.000, 3.250, 3.875, 0.500, -0.625, 0.500, -0.125, -0.125, -1.250, 0.625, 0.625, 0.000, 0.500, 0.250, 0.250, -0.125, -0.250, 0.000, -0.125, 0.250, 0.000, 0.125, -0.375, 0.000, -0.250, 0.250, 0.000, 0.125, -0.250, -0.125, -0.625, -0.125, -0.250, -0.125, 0.000, -0.125, 0.125, 0.125, 0.500, 0.125, 0.375, 0.125, 0.125, -0.375, 0.250, -0.250, -0.250, 0.250, 0.000, -0.125, 0.000, 0.250, -0.125, -0.375, 0.250, 0.000, -0.125, -0.125, -0.500, -0.375, -0.250, 0.000, 0.125, -0.625, 0.250, 0.125, 0.125, 0.125, -0.125, -0.125, -0.125, 0.375, 0.500, 0.125, 0.125, -0.125, -0.125, -0.250, 0.250, 0.250, -0.500, 0.250, 0.250, 0.125, -0.125, 0.000, 0.250, -0.250, -0.125, -0.625, 0.375, 0.000, 0.000, 0.125, -0.125, 0.125, 0.125, 0.625, -0.125, 0.250, 0.000, 0.125, -0.250, -0.125, 0.500, -0.375, -0.250, 1.375, -1.375, -0.625, -0.500, 1.000, 2.500, 1.875, 0.625};
bias6_t b6[8] = {0.750, 1.500, 0.500, -0.375, 0.250, 0.375, 0.875, -0.125};

#endif