//Numpy array shape [64]
//Min -0.357032746077
//Max 0.319357633591
//Number of zeros 0

#ifndef B4_H_
#define B4_H_

#ifdef LOAD_WEIGHTS_FROM_TXT
model_default_t b4[64];
#else
model_default_t b4[64] = {0.06997916, -0.06943461, 0.26774773, 0.13324787, -0.08838706, -0.08735703, -0.11124814, -0.05929121, 0.31192446, -0.09811403, -0.13069411, 0.12442207, 0.06667536, -0.04194177, -0.33642900, -0.26532298, -0.15868501, 0.07283197, 0.07602915, 0.05485495, 0.19848229, 0.14160128, -0.35703275, -0.09163803, 0.31935763, -0.00435272, -0.00590135, 0.10063112, 0.07321178, -0.07961508, 0.04458249, -0.09654649, -0.14150913, 0.03974623, -0.02542752, -0.06894792, -0.17108652, -0.17605795, -0.16686535, -0.07401850, -0.12258240, -0.09618964, -0.07799662, 0.00872714, 0.15033002, -0.08691546, 0.07033332, -0.08341548, 0.00801197, 0.14121455, -0.01809914, -0.12239573, 0.08567314, -0.03227874, -0.10233794, -0.01957002, 0.01719119, -0.05640313, -0.21250018, -0.03503292, -0.08694633, 0.26196107, -0.15860742, 0.11098887};
#endif

#endif
