//Numpy array shape [32, 5]
//Min -1.000000000000
//Max 0.843750000000
//Number of zeros 15

#ifndef W14_H_
#define W14_H_

#ifdef LOAD_WEIGHTS_FROM_TXT
weight14_t w14[160];
#else
weight14_t w14[160] = {-0.59375, 0.15625, -0.25000, 0.37500, 0.56250, 0.43750, 0.00000, -0.53125, -0.56250, 0.09375, -0.37500, 0.09375, -0.53125, 0.21875, 0.37500, 0.00000, -0.18750, -0.18750, 0.40625, 0.31250, -0.40625, -0.46875, -0.21875, 0.40625, 0.37500, 0.00000, 0.06250, 0.31250, -0.25000, -0.90625, 0.34375, 0.43750, -0.25000, -0.18750, -0.62500, 0.50000, 0.28125, -0.53125, -0.37500, -0.15625, 0.50000, -0.15625, 0.37500, -0.75000, -1.00000, -0.12500, 0.31250, -0.34375, -0.21875, -0.31250, 0.62500, -0.06250, -0.31250, 0.06250, -0.31250, -0.09375, 0.00000, 0.34375, -0.50000, -0.62500, 0.43750, 0.15625, -0.15625, -0.68750, -0.15625, -0.31250, 0.00000, 0.34375, -0.40625, 0.00000, 0.03125, -0.90625, -0.15625, 0.53125, 0.03125, -0.59375, 0.09375, 0.09375, -0.50000, 0.71875, -0.62500, 0.15625, -0.43750, 0.03125, 0.28125, 0.06250, 0.50000, -0.18750, -0.12500, -0.18750, -0.50000, 0.40625, -0.03125, 0.53125, -0.28125, 0.53125, 0.00000, -0.34375, -0.31250, 0.25000, -0.15625, 0.00000, -0.28125, -0.87500, 0.71875, 0.50000, -0.09375, 0.00000, 0.68750, -0.56250, 0.00000, 0.21875, 0.03125, 0.43750, -0.12500, -0.28125, -0.43750, 0.31250, 0.84375, -0.34375, 0.00000, 0.00000, 0.37500, -0.37500, 0.46875, -0.28125, 0.28125, -0.28125, 0.12500, 0.53125, 0.28125, -0.18750, -0.31250, 0.00000, 0.53125, -0.06250, -0.21875, 0.81250, 0.50000, -0.56250, -0.12500, 0.00000, 0.59375, -0.56250, 0.12500, -0.40625, -0.15625, 0.75000, 0.37500, 0.03125, 0.31250, 0.09375, 0.59375, 0.00000, -0.71875, 0.37500, -0.12500, 0.46875, -0.53125, 0.25000};
#endif

#endif
