//Numpy array shape [64, 32]
//Min -0.437500000000
//Max 0.468750000000
//Number of zeros 945

#ifndef W6_H_
#define W6_H_

#ifdef LOAD_WEIGHTS_FROM_TXT
weight6_t w6[2048];
#else
weight6_t w6[2048] = {0.00000, -0.06250, -0.25000, -0.06250, -0.43750, -0.03125, -0.03125, 0.00000, 0.03125, 0.03125, 0.15625, 0.06250, 0.00000, -0.15625, 0.00000, 0.00000, 0.00000, 0.00000, 0.25000, 0.09375, 0.06250, -0.03125, 0.00000, 0.00000, -0.03125, 0.25000, -0.06250, 0.06250, 0.00000, 0.00000, 0.03125, -0.12500, -0.09375, -0.09375, 0.03125, 0.00000, 0.00000, -0.03125, 0.00000, 0.00000, 0.12500, 0.00000, 0.06250, -0.15625, -0.03125, 0.00000, 0.00000, 0.15625, -0.03125, 0.00000, 0.03125, 0.00000, 0.00000, 0.06250, 0.03125, -0.06250, 0.00000, 0.00000, 0.00000, 0.09375, 0.00000, 0.00000, 0.00000, -0.09375, 0.03125, 0.06250, 0.03125, 0.00000, 0.06250, 0.09375, 0.03125, 0.06250, 0.00000, 0.12500, 0.00000, 0.03125, -0.06250, 0.09375, -0.03125, 0.00000, -0.03125, 0.09375, -0.09375, -0.09375, -0.03125, 0.00000, 0.00000, 0.00000, 0.06250, -0.06250, 0.00000, 0.03125, -0.06250, 0.03125, 0.15625, -0.12500, -0.18750, 0.00000, -0.03125, 0.03125, 0.00000, -0.18750, 0.00000, 0.03125, 0.00000, 0.06250, -0.03125, -0.06250, 0.00000, 0.15625, 0.00000, 0.00000, 0.00000, 0.00000, 0.00000, -0.21875, 0.06250, 0.12500, 0.03125, -0.12500, 0.03125, -0.31250, -0.06250, 0.00000, 0.00000, 0.09375, 0.00000, 0.00000, 0.03125, 0.00000, -0.09375, -0.06250, -0.06250, 0.09375, 0.00000, 0.00000, 0.00000, 0.00000, -0.09375, 0.00000, 0.00000, -0.15625, 0.00000, -0.03125, 0.00000, 0.00000, 0.03125, 0.00000, -0.03125, 0.00000, 0.00000, 0.09375, 0.00000, 0.00000, 0.00000, -0.03125, -0.03125, 0.00000, -0.12500, 0.00000, 0.00000, 0.00000, 0.00000, 0.00000, -0.12500, 0.00000, 0.00000, 0.00000, 0.00000, 0.03125, 0.03125, 0.00000, 0.00000, -0.15625, -0.03125, 0.03125, -0.18750, 0.03125, 0.15625, -0.06250, 0.00000, -0.03125, 0.00000, 0.00000, 0.06250, -0.03125, 0.00000, 0.00000, 0.00000, 0.00000, 0.00000, -0.09375, -0.09375, 0.00000, 0.00000, 0.03125, 0.18750, 0.06250, 0.00000, -0.03125, 0.09375, 0.03125, 0.00000, 0.00000, -0.12500, 0.00000, 0.00000, -0.03125, 0.00000, 0.00000, 0.00000, 0.00000, 0.03125, 0.03125, 0.06250, -0.09375, -0.09375, -0.21875, -0.03125, 0.03125, -0.12500, -0.03125, 0.00000, -0.21875, -0.06250, 0.06250, -0.03125, 0.00000, -0.18750, 0.03125, 0.00000, 0.00000, 0.09375, -0.06250, 0.06250, 0.00000, 0.00000, 0.00000, 0.12500, 0.00000, 0.00000, 0.00000, 0.18750, 0.18750, 0.00000, 0.03125, 0.00000, 0.00000, 0.00000, 0.00000, 0.00000, 0.00000, -0.06250, -0.06250, 0.00000, 0.00000, 0.00000, -0.03125, -0.15625, 0.00000, -0.43750, 0.00000, -0.18750, -0.06250, 0.00000, -0.06250, 0.06250, 0.00000, 0.15625, -0.18750, 0.12500, -0.03125, 0.00000, 0.06250, 0.34375, 0.15625, 0.00000, 0.00000, -0.03125, -0.03125, 0.00000, 0.06250, 0.00000, 0.21875, -0.09375, 0.00000, -0.09375, 0.15625, -0.09375, 0.00000, -0.03125, 0.00000, -0.25000, 0.00000, 0.06250, 0.00000, 0.09375, -0.03125, 0.00000, 0.00000, 0.00000, -0.09375, 0.00000, -0.06250, 0.00000, 0.00000, 0.21875, -0.12500, 0.00000, 0.00000, 0.06250, -0.09375, 0.03125, 0.09375, 0.00000, 0.00000, -0.09375, -0.12500, 0.03125, 0.00000, 0.00000, 0.03125, 0.00000, 0.00000, 0.00000, -0.12500, 0.00000, 0.00000, -0.12500, 0.06250, 0.00000, 0.00000, 0.00000, 0.06250, 0.00000, 0.00000, 0.00000, 0.00000, 0.00000, -0.12500, 0.00000, -0.06250, 0.00000, 0.00000, -0.09375, 0.00000, 0.03125, -0.03125, 0.03125, 0.00000, -0.06250, -0.09375, -0.34375, 0.00000, 0.00000, 0.03125, -0.09375, -0.15625, 0.00000, 0.00000, 0.09375, -0.18750, -0.03125, 0.00000, 0.00000, 0.00000, 0.18750, -0.12500, -0.06250, 0.00000, 0.06250, 0.12500, 0.06250, 0.12500, 0.00000, -0.06250, -0.12500, -0.18750, 0.00000, -0.03125, 0.00000, 0.03125, 0.00000, 0.21875, -0.15625, 0.06250, -0.03125, 0.00000, 0.06250, 0.00000, 0.00000, 0.00000, -0.21875, 0.00000, 0.00000, 0.00000, 0.00000, -0.06250, -0.03125, -0.18750, 0.00000, -0.06250, -0.15625, 0.15625, 0.03125, 0.00000, 0.09375, -0.06250, 0.00000, -0.09375, 0.00000, 0.00000, 0.00000, 0.15625, -0.03125, 0.00000, -0.03125, 0.00000, 0.00000, 0.00000, 0.03125, 0.00000, 0.00000, 0.00000, 0.03125, 0.00000, 0.00000, -0.03125, 0.06250, 0.00000, 0.00000, 0.00000, -0.06250, 0.00000, 0.03125, 0.03125, -0.03125, 0.00000, 0.00000, 0.00000, 0.00000, 0.00000, 0.03125, 0.00000, -0.03125, -0.06250, -0.09375, 0.03125, 0.09375, -0.09375, 0.00000, 0.00000, 0.06250, -0.21875, 0.00000, 0.00000, 0.00000, 0.00000, -0.06250, 0.09375, 0.00000, 0.03125, 0.00000, -0.09375, 0.00000, -0.03125, 0.00000, 0.00000, 0.00000, 0.00000, 0.18750, 0.00000, 0.03125, -0.06250, 0.00000, -0.09375, 0.06250, 0.18750, 0.00000, 0.03125, 0.00000, 0.00000, 0.00000, 0.00000, -0.03125, 0.03125, 0.00000, 0.00000, 0.00000, 0.00000, 0.03125, 0.00000, 0.06250, -0.03125, 0.00000, 0.00000, 0.09375, 0.00000, -0.03125, 0.06250, 0.00000, 0.06250, 0.03125, -0.06250, -0.03125, 0.00000, 0.00000, 0.12500, -0.03125, 0.25000, 0.00000, 0.15625, 0.00000, 0.00000, 0.03125, 0.00000, 0.00000, -0.09375, 0.03125, 0.03125, -0.03125, -0.03125, 0.00000, 0.00000, 0.03125, 0.00000, 0.00000, 0.03125, 0.21875, 0.12500, -0.06250, 0.00000, 0.00000, 0.00000, -0.03125, 0.00000, 0.00000, -0.09375, 0.06250, -0.03125, 0.00000, 0.00000, -0.03125, 0.00000, -0.12500, 0.00000, 0.03125, 0.00000, 0.03125, 0.00000, 0.00000, 0.00000, -0.03125, -0.15625, 0.00000, -0.06250, -0.12500, 0.00000, 0.00000, 0.00000, 0.00000, 0.00000, -0.06250, 0.03125, 0.00000, 0.00000, -0.09375, -0.03125, 0.00000, -0.06250, 0.00000, 0.03125, -0.06250, 0.00000, 0.00000, -0.03125, -0.03125, -0.09375, 0.00000, -0.12500, 0.09375, 0.06250, 0.03125, 0.00000, 0.06250, 0.00000, 0.00000, 0.15625, 0.00000, 0.00000, 0.00000, 0.00000, 0.03125, 0.06250, 0.09375, 0.00000, 0.00000, -0.03125, 0.00000, 0.00000, 0.09375, 0.00000, 0.00000, 0.00000, 0.03125, 0.03125, 0.00000, 0.00000, 0.03125, 0.00000, 0.00000, 0.00000, 0.06250, -0.03125, 0.00000, 0.00000, 0.03125, 0.00000, 0.00000, 0.00000, 0.00000, 0.03125, -0.03125, 0.09375, -0.03125, 0.00000, -0.12500, 0.00000, 0.00000, -0.03125, 0.00000, -0.06250, 0.06250, 0.21875, 0.00000, -0.03125, 0.09375, 0.06250, 0.03125, 0.00000, -0.03125, 0.00000, -0.06250, 0.03125, 0.09375, -0.15625, 0.00000, 0.03125, 0.00000, -0.06250, 0.00000, -0.09375, 0.00000, 0.21875, 0.12500, 0.03125, 0.00000, 0.00000, -0.03125, 0.00000, 0.12500, 0.06250, 0.12500, 0.00000, -0.03125, -0.37500, 0.00000, -0.15625, 0.00000, 0.00000, -0.03125, 0.18750, 0.00000, -0.09375, 0.00000, 0.00000, 0.09375, 0.00000, 0.00000, 0.00000, 0.00000, 0.00000, 0.00000, -0.03125, 0.00000, 0.03125, -0.03125, 0.12500, -0.06250, 0.03125, -0.09375, -0.15625, 0.00000, 0.00000, 0.00000, -0.03125, -0.03125, 0.00000, -0.06250, 0.06250, 0.00000, 0.00000, 0.00000, -0.09375, 0.00000, 0.00000, -0.03125, 0.00000, 0.03125, 0.31250, 0.00000, -0.06250, 0.00000, 0.00000, 0.00000, -0.18750, 0.00000, -0.09375, -0.06250, 0.00000, 0.06250, 0.00000, 0.00000, -0.12500, 0.00000, 0.09375, 0.06250, 0.00000, 0.00000, 0.00000, 0.00000, 0.06250, -0.25000, 0.09375, 0.00000, 0.06250, 0.00000, 0.03125, 0.15625, -0.03125, 0.21875, 0.00000, 0.03125, 0.00000, 0.03125, 0.09375, -0.15625, 0.00000, 0.00000, 0.06250, -0.03125, 0.15625, -0.06250, 0.00000, -0.28125, 0.00000, 0.00000, 0.00000, 0.00000, -0.06250, 0.00000, -0.03125, 0.03125, 0.03125, 0.00000, -0.03125, 0.06250, -0.03125, 0.00000, 0.00000, 0.03125, -0.03125, -0.09375, 0.00000, 0.00000, 0.00000, -0.03125, -0.03125, 0.03125, 0.00000, 0.00000, -0.06250, 0.12500, 0.00000, 0.00000, 0.00000, 0.00000, 0.09375, 0.00000, 0.00000, 0.06250, 0.00000, 0.06250, -0.09375, -0.06250, 0.00000, 0.00000, 0.00000, 0.00000, 0.00000, -0.06250, 0.03125, 0.00000, 0.00000, -0.12500, -0.09375, 0.00000, 0.00000, 0.00000, 0.09375, 0.00000, 0.00000, 0.00000, -0.03125, 0.00000, -0.06250, 0.03125, 0.00000, 0.00000, 0.00000, 0.00000, 0.00000, 0.06250, 0.00000, 0.00000, 0.00000, -0.03125, 0.06250, 0.18750, 0.12500, 0.00000, 0.00000, 0.00000, 0.09375, 0.03125, 0.00000, -0.03125, 0.00000, -0.09375, 0.00000, -0.18750, 0.15625, 0.00000, 0.03125, 0.03125, -0.03125, -0.03125, 0.00000, -0.06250, 0.03125, -0.09375, 0.03125, -0.06250, -0.09375, -0.03125, 0.00000, 0.00000, 0.00000, 0.00000, 0.00000, 0.00000, 0.15625, 0.03125, -0.15625, -0.31250, 0.00000, 0.00000, 0.06250, 0.00000, 0.06250, -0.15625, 0.00000, 0.03125, -0.43750, 0.00000, 0.00000, 0.00000, 0.00000, 0.15625, -0.25000, -0.12500, 0.00000, 0.15625, 0.06250, 0.12500, 0.21875, -0.06250, -0.06250, 0.00000, 0.00000, 0.00000, 0.06250, 0.00000, -0.09375, -0.12500, 0.46875, -0.03125, 0.00000, 0.12500, 0.00000, 0.18750, -0.28125, 0.09375, 0.00000, 0.03125, 0.09375, 0.00000, 0.00000, 0.00000, 0.03125, 0.00000, 0.00000, 0.18750, 0.00000, -0.06250, -0.15625, 0.00000, 0.00000, 0.00000, 0.00000, -0.21875, -0.03125, 0.00000, -0.09375, -0.09375, -0.03125, 0.00000, -0.12500, -0.15625, -0.09375, -0.03125, 0.03125, -0.06250, -0.09375, 0.00000, 0.00000, -0.06250, 0.00000, 0.00000, 0.00000, 0.00000, 0.00000, 0.00000, -0.12500, -0.28125, 0.00000, 0.00000, -0.12500, 0.00000, 0.00000, 0.18750, 0.00000, 0.12500, 0.00000, 0.00000, 0.06250, 0.12500, 0.12500, 0.00000, 0.00000, -0.03125, 0.03125, 0.00000, 0.00000, -0.09375, -0.03125, 0.00000, 0.00000, 0.03125, 0.00000, 0.12500, 0.00000, 0.03125, -0.21875, 0.00000, 0.00000, 0.06250, 0.06250, 0.06250, -0.03125, -0.15625, 0.03125, 0.00000, 0.00000, 0.00000, 0.00000, 0.00000, 0.00000, -0.03125, -0.15625, 0.03125, -0.15625, 0.15625, 0.06250, 0.06250, 0.03125, 0.06250, -0.06250, 0.00000, 0.00000, 0.00000, -0.03125, 0.00000, -0.06250, 0.00000, 0.06250, -0.06250, 0.00000, 0.00000, 0.03125, -0.12500, 0.03125, 0.00000, 0.00000, -0.15625, -0.03125, 0.00000, 0.09375, 0.00000, 0.00000, 0.06250, 0.12500, 0.03125, 0.15625, 0.15625, 0.06250, 0.00000, 0.00000, 0.12500, 0.09375, 0.00000, 0.03125, 0.00000, 0.00000, -0.06250, 0.00000, 0.00000, 0.12500, 0.00000, 0.00000, 0.00000, 0.00000, 0.00000, 0.00000, 0.00000, 0.00000, 0.00000, 0.00000, -0.03125, 0.03125, 0.00000, 0.00000, -0.12500, -0.28125, -0.06250, 0.00000, 0.06250, -0.06250, 0.00000, 0.00000, 0.00000, -0.12500, 0.00000, 0.00000, 0.21875, 0.15625, -0.06250, 0.00000, 0.00000, -0.03125, -0.03125, 0.03125, 0.00000, 0.00000, -0.15625, -0.06250, 0.00000, 0.00000, 0.00000, 0.03125, 0.00000, -0.12500, -0.09375, -0.09375, 0.00000, 0.00000, 0.00000, -0.31250, 0.09375, 0.00000, 0.00000, 0.03125, -0.06250, 0.09375, 0.00000, 0.00000, -0.12500, -0.03125, 0.00000, -0.03125, 0.00000, 0.00000, 0.00000, 0.15625, 0.06250, 0.00000, 0.00000, -0.18750, -0.06250, 0.00000, -0.18750, 0.00000, 0.00000, 0.03125, 0.00000, -0.15625, 0.00000, 0.00000, 0.00000, 0.00000, 0.00000, -0.12500, 0.00000, 0.03125, 0.00000, -0.15625, 0.06250, 0.00000, -0.03125, 0.00000, 0.03125, 0.00000, 0.00000, -0.12500, 0.00000, 0.06250, 0.03125, -0.15625, -0.03125, 0.00000, 0.00000, 0.00000, 0.06250, 0.00000, 0.00000, -0.03125, 0.00000, 0.00000, -0.06250, -0.15625, 0.06250, 0.00000, -0.09375, 0.00000, 0.03125, 0.00000, -0.12500, -0.18750, 0.06250, 0.06250, -0.03125, 0.00000, 0.12500, 0.00000, 0.00000, 0.00000, 0.00000, 0.00000, -0.09375, 0.03125, 0.00000, 0.00000, 0.00000, 0.00000, -0.06250, 0.06250, 0.00000, 0.09375, 0.09375, 0.00000, -0.06250, 0.00000, 0.03125, 0.00000, 0.00000, -0.03125, 0.09375, 0.00000, 0.03125, -0.09375, 0.12500, -0.12500, 0.06250, 0.00000, 0.00000, 0.00000, 0.06250, 0.12500, 0.00000, -0.06250, 0.03125, 0.00000, -0.15625, 0.00000, 0.00000, 0.00000, 0.00000, -0.09375, 0.00000, -0.06250, -0.03125, -0.06250, 0.00000, 0.00000, 0.03125, 0.00000, -0.06250, 0.00000, -0.18750, -0.03125, -0.06250, -0.09375, 0.09375, 0.00000, 0.09375, -0.06250, 0.00000, 0.00000, 0.06250, -0.03125, 0.00000, -0.06250, 0.09375, 0.00000, 0.09375, 0.00000, 0.00000, 0.00000, 0.06250, 0.00000, 0.00000, -0.12500, -0.06250, 0.18750, -0.15625, -0.06250, 0.06250, 0.00000, 0.03125, 0.06250, 0.03125, 0.00000, 0.06250, 0.03125, 0.00000, 0.00000, 0.12500, 0.09375, 0.00000, 0.06250, 0.03125, 0.00000, 0.00000, 0.15625, -0.03125, 0.00000, -0.09375, 0.00000, 0.00000, 0.00000, -0.06250, 0.00000, 0.00000, -0.03125, 0.06250, 0.00000, 0.00000, 0.00000, 0.00000, 0.00000, 0.06250, 0.03125, -0.12500, 0.03125, -0.06250, 0.06250, 0.06250, 0.03125, -0.06250, -0.06250, 0.00000, -0.06250, 0.00000, 0.00000, 0.00000, 0.03125, 0.00000, 0.09375, 0.00000, 0.00000, 0.00000, 0.00000, 0.00000, 0.00000, 0.00000, 0.00000, 0.06250, 0.00000, -0.18750, -0.28125, 0.03125, 0.09375, 0.00000, -0.06250, -0.03125, -0.03125, -0.03125, 0.03125, 0.03125, -0.03125, -0.18750, -0.03125, 0.00000, -0.09375, 0.03125, 0.00000, 0.00000, 0.00000, 0.00000, 0.00000, 0.06250, 0.03125, -0.03125, 0.06250, -0.09375, 0.00000, 0.09375, 0.00000, 0.00000, 0.12500, 0.00000, 0.00000, 0.00000, 0.12500, -0.09375, -0.06250, 0.00000, 0.00000, 0.06250, -0.09375, 0.00000, 0.00000, 0.12500, 0.03125, 0.00000, -0.03125, 0.00000, -0.06250, 0.00000, -0.12500, -0.06250, 0.00000, -0.03125, 0.00000, 0.00000, 0.09375, 0.00000, 0.00000, -0.03125, 0.12500, 0.00000, 0.00000, 0.00000, -0.03125, 0.00000, -0.03125, -0.06250, 0.00000, 0.00000, 0.00000, -0.06250, 0.00000, 0.00000, 0.00000, 0.03125, 0.03125, -0.06250, 0.06250, 0.00000, 0.00000, 0.00000, -0.06250, -0.34375, -0.06250, -0.09375, -0.09375, -0.06250, 0.06250, 0.00000, 0.03125, 0.00000, -0.06250, 0.03125, 0.00000, 0.00000, -0.12500, 0.03125, 0.00000, -0.06250, 0.12500, -0.09375, 0.00000, -0.21875, 0.06250, 0.00000, 0.00000, 0.00000, -0.03125, 0.00000, 0.00000, 0.00000, -0.03125, 0.00000, -0.09375, -0.06250, 0.00000, 0.15625, 0.03125, 0.00000, 0.03125, 0.03125, -0.03125, -0.03125, 0.12500, 0.00000, 0.03125, 0.00000, 0.00000, 0.00000, 0.06250, -0.06250, 0.09375, 0.03125, 0.06250, 0.03125, 0.09375, 0.00000, 0.09375, 0.15625, -0.03125, 0.00000, 0.03125, -0.12500, 0.06250, 0.12500, 0.00000, -0.03125, 0.00000, 0.09375, 0.09375, 0.00000, 0.03125, 0.21875, 0.00000, 0.00000, -0.03125, 0.00000, 0.00000, -0.09375, -0.06250, -0.09375, 0.15625, -0.03125, 0.00000, 0.00000, 0.00000, 0.00000, 0.00000, 0.00000, 0.00000, -0.06250, -0.12500, 0.03125, 0.00000, 0.15625, 0.03125, 0.00000, 0.03125, 0.03125, 0.00000, 0.03125, 0.09375, 0.00000, 0.00000, 0.00000, -0.06250, 0.00000, -0.18750, 0.03125, 0.00000, -0.03125, 0.00000, 0.00000, 0.00000, 0.06250, 0.03125, 0.03125, 0.00000, 0.18750, -0.03125, 0.00000, 0.03125, 0.00000, 0.00000, 0.00000, 0.00000, 0.03125, 0.00000, -0.12500, 0.00000, 0.21875, 0.06250, -0.03125, -0.03125, 0.00000, -0.03125, 0.00000, -0.06250, 0.00000, 0.00000, 0.00000, -0.03125, -0.06250, -0.09375, -0.06250, -0.06250, -0.21875, 0.00000, 0.00000, 0.00000, 0.00000, -0.03125, 0.00000, 0.00000, 0.18750, 0.00000, 0.09375, 0.00000, -0.03125, -0.06250, 0.03125, 0.06250, 0.15625, 0.09375, 0.21875, -0.12500, 0.00000, 0.06250, 0.00000, 0.00000, 0.00000, -0.09375, 0.00000, 0.00000, 0.00000, -0.12500, 0.06250, 0.00000, 0.15625, 0.00000, 0.00000, 0.00000, 0.15625, 0.00000, 0.00000, 0.00000, 0.00000, 0.00000, -0.03125, 0.00000, 0.00000, 0.06250, 0.00000, -0.06250, -0.06250, 0.06250, 0.06250, 0.00000, 0.00000, -0.03125, -0.09375, 0.00000, 0.03125, 0.06250, -0.03125, -0.09375, -0.03125, 0.03125, 0.00000, 0.03125, -0.03125, -0.03125, 0.00000, 0.00000, -0.06250, 0.09375, 0.00000, 0.12500, 0.03125, 0.00000, 0.00000, 0.15625, -0.03125, -0.03125, 0.12500, 0.00000, -0.15625, -0.15625, 0.18750, 0.00000, 0.03125, 0.00000, 0.03125, 0.00000, 0.00000, 0.00000, 0.00000, -0.03125, -0.03125, 0.12500, 0.00000, 0.09375, -0.06250, 0.00000, 0.03125, 0.00000, -0.09375, 0.12500, 0.00000, 0.00000, -0.12500, -0.21875, 0.00000, 0.00000, 0.00000, -0.15625, 0.09375, 0.06250, 0.00000, 0.25000, 0.03125, 0.12500, 0.00000, 0.06250, 0.00000, -0.03125, 0.00000, 0.00000, 0.00000, 0.03125, 0.03125, 0.06250, -0.06250, 0.34375, -0.03125, -0.03125, 0.00000, 0.00000, -0.03125, 0.06250, -0.03125, -0.03125, 0.03125, -0.03125, 0.12500, 0.00000, 0.00000, -0.15625, -0.06250, -0.12500, 0.09375, 0.18750, 0.09375, -0.09375, 0.00000, 0.00000, -0.06250, 0.00000, 0.03125, 0.12500, 0.00000, 0.00000, 0.00000, 0.00000, 0.12500, 0.00000, 0.21875, 0.03125, 0.00000, -0.03125, -0.03125, 0.06250, 0.03125, -0.06250, 0.00000, 0.00000, 0.00000, 0.03125, 0.00000, 0.00000, -0.03125, -0.03125, 0.03125, 0.00000, 0.06250, 0.12500, -0.03125, -0.03125, -0.09375, 0.00000, 0.00000, 0.15625, 0.00000, -0.06250, 0.06250, 0.09375, -0.12500, 0.00000, 0.00000, 0.03125, -0.09375, 0.00000, -0.12500, 0.00000, 0.06250, -0.03125, 0.03125, 0.06250, 0.06250, 0.00000, 0.03125, -0.15625, -0.15625, 0.00000, 0.03125, 0.00000, 0.00000, 0.06250, 0.00000, -0.03125, 0.00000, 0.00000, 0.09375, 0.09375, 0.00000, 0.00000, 0.00000, 0.00000, 0.00000, 0.00000, -0.06250, -0.03125, 0.00000, 0.00000, -0.03125, 0.00000, 0.00000, -0.09375, 0.18750, -0.06250, -0.03125, 0.00000, 0.00000, 0.00000, 0.06250, -0.09375, 0.00000, 0.00000, 0.00000, 0.00000, 0.03125, 0.00000, 0.00000, -0.09375, 0.00000, 0.06250, 0.00000, 0.00000, 0.00000, -0.03125, -0.03125, -0.03125, -0.06250, 0.00000, -0.06250, 0.00000, -0.03125, -0.03125, 0.09375, 0.00000, 0.31250, 0.00000, 0.09375, 0.00000, 0.00000, -0.03125, -0.09375, -0.09375, 0.03125, 0.00000, 0.09375, 0.00000, 0.00000, 0.03125, 0.06250, -0.18750, -0.03125, -0.06250, 0.00000, 0.18750, 0.00000, -0.06250, -0.03125, 0.00000, 0.03125, 0.00000, 0.06250, 0.00000, 0.06250, -0.12500, 0.03125, 0.00000, 0.03125, 0.00000, 0.00000, 0.00000, -0.03125, 0.00000, 0.00000, 0.03125, 0.06250, 0.00000, -0.03125, 0.00000, 0.00000, 0.00000, -0.06250, 0.00000, 0.00000, 0.00000, 0.00000, 0.00000, 0.00000, -0.03125, -0.12500, 0.00000, 0.09375, -0.03125, 0.03125, -0.03125, 0.00000, -0.03125, 0.09375, -0.09375, -0.03125, -0.06250, 0.00000, 0.00000, 0.00000, 0.00000, -0.03125, 0.03125, 0.15625, 0.00000, 0.00000, 0.00000, 0.00000, 0.00000, 0.00000, -0.06250, 0.00000, -0.03125, 0.00000, -0.18750, 0.06250, 0.09375, -0.09375, 0.06250, 0.15625, 0.00000, 0.03125, 0.00000, 0.06250, 0.00000, 0.00000, 0.00000, 0.00000, 0.00000, 0.06250, 0.00000, 0.00000, 0.00000, -0.09375, 0.00000, 0.03125, 0.12500, -0.06250, -0.12500, -0.09375, -0.09375, -0.09375, 0.00000, 0.03125, -0.03125, 0.03125, 0.00000, 0.00000, 0.03125, 0.00000, -0.12500, 0.00000, 0.06250, 0.00000, 0.03125, 0.03125, 0.09375, 0.00000, -0.03125, 0.00000, 0.00000, 0.00000, 0.00000, 0.00000, 0.00000, 0.00000, 0.00000, 0.06250, 0.03125, -0.03125, 0.00000, 0.00000, 0.03125, -0.12500, 0.00000, -0.03125, 0.00000, 0.00000, 0.15625, -0.12500, -0.03125, 0.00000, 0.00000, -0.15625, -0.06250, 0.21875, 0.06250, 0.15625, -0.09375, 0.03125, 0.00000, 0.00000, 0.31250, 0.00000, -0.03125, 0.15625, 0.21875, 0.00000, 0.06250, 0.15625, 0.00000, 0.12500, -0.18750, 0.00000, 0.09375, 0.09375, 0.09375, -0.31250, -0.15625, -0.03125, 0.12500, -0.15625, -0.28125, 0.12500, -0.03125, -0.25000, 0.00000, 0.00000, 0.12500, 0.09375, -0.03125, 0.00000, 0.00000, -0.03125, -0.03125, 0.00000, -0.15625, 0.00000, 0.06250, 0.00000, -0.06250, -0.06250, 0.00000, 0.00000, -0.03125, 0.00000, 0.03125, 0.06250, 0.00000, 0.03125, 0.03125, -0.09375, 0.00000, 0.03125, 0.00000, 0.00000, 0.03125, -0.34375, 0.00000, -0.12500, 0.09375, -0.03125, -0.15625, 0.00000, 0.00000, 0.00000, 0.00000, -0.28125, 0.00000, 0.00000, 0.18750, 0.06250, -0.18750, 0.00000, -0.06250, 0.03125, 0.00000, 0.18750, 0.15625, 0.15625, -0.03125, -0.21875, -0.18750, 0.00000, 0.06250, 0.00000, 0.00000, -0.06250, 0.00000};
#endif

#endif
