//Numpy array shape [16, 13]
//Min -0.875000000000
//Max 0.750000000000
//Number of zeros 155

#ifndef W6_H_
#define W6_H_

#ifdef LOAD_WEIGHTS_FROM_TXT
weight6_t w6[128];
#else
weight6_t w6[128] = {0.000, -0.125, 0.125, 0.250, 0.500, 0.125, -0.125, -0.125, 1.875, -2.625, 1.250, 3.500, 0.875, 0.375, 3.875, 1.000, -3.750, -4.000, -4.000, 3.750, 3.625, 3.875, 3.875, 3.875, 0.000, 0.000, 0.250, 0.250, -0.250, 0.000, 0.125, -0.250, 0.250, 0.000, 0.125, -0.375, 0.000, -0.375, 0.000, 0.000, 0.250, 0.000, -0.250, -0.500, 0.000, 0.125, -0.375, 0.000, 0.000, -0.125, 0.000, -0.125, -0.500, -0.375, 0.125, -0.125, -0.375, 0.000, -0.125, -0.250, 0.125, 0.000, 0.125, -0.250, 0.125, 0.000, -0.250, 0.250, 0.125, -0.125, -0.125, -0.500, -0.125, 0.000, -0.250, 0.125, -0.375, 0.250, 0.250, 0.125, 0.375, 0.000, -0.250, -0.125, 0.250, 0.250, 0.250, 0.250, -0.375, 0.000, -0.125, 0.125, 0.000, -0.250, -0.250, 0.250, 0.250, 0.000, 0.000, 0.500, -0.125, 0.000, -0.250, 0.375, 0.000, 0.000, 0.125, -0.125, 0.000, 0.250, 0.375, 0.375, 0.000, 0.000, 0.000, -0.125, -0.250, 0.375, -0.500, 0.000, -0.375, 0.000, 0.125, 0.625, 0.250, -0.250, 0.625, -0.375};
#endif

#endif
