#ifndef AXOL1TL_V4_WEIGHTS_H_
#define AXOL1TL_V4_WEIGHTS_H_
#include "defines.h"

namespace hls4ml_axol1tl_v4 {
weight2_t w2[1596] = {0.000, -0.250, 0.000, 0.000, 0.125, -0.250, 0.000, 0.125, 0.000, -0.125, 0.000, 0.000, 0.000, 0.000, 0.000, -0.125, 0.000, 0.000, 0.000, 0.000, 0.000, 0.000, 0.000, 0.000, 0.000, 0.000, 0.000, 0.000, -0.125, 0.000, -0.250, 0.250, 0.125, 0.250, -0.250, -0.250, 0.000, 0.000, 0.000, 0.000, 0.000, -0.125, 0.000, 0.250, -0.125, 0.250, 0.250, 0.000, -0.250, -0.125, -0.125, 0.125, 0.000, 0.250, 0.000, 0.250, 0.000, 0.125, 0.000, 0.000, -0.125, 0.000, 0.000, 0.000, 0.000, 0.125, 0.000, 0.000, 0.000, 0.000, 0.000, 0.000, 0.000, 0.000, 0.000, 0.000, 0.000, 0.125, 0.000, 0.000, 0.000, 0.000, 0.000, 0.000, 0.000, 0.000, 0.000, 0.000, 0.000, 0.000, 0.000, 0.125, 0.000, 0.000, 0.000, -0.125, 0.000, 0.000, 0.000, -0.375, 0.000, 0.000, -0.250, 0.000, 0.125, 0.000, 0.000, 0.000, 0.000, 0.000, 0.125, 0.000, 0.000, -0.125, 0.000, 0.000, 0.000, 0.000, 0.000, 0.000, 0.000, 0.000, -0.125, 0.000, 0.000, 0.000, 0.000, 0.000, 0.000, 0.000, 0.000, 0.000, 0.000, 0.125, 0.000, 0.000, 0.000, 0.000, 0.000, 0.000, 0.000, 0.125, 0.000, 0.000, -0.125, 0.000, 0.000, 0.000, 0.000, 0.000, 0.000, 0.000, 0.000, 0.000, 0.000, 0.000, 0.000, 0.000, 0.000, 0.000, 0.000, -0.125, 0.000, 0.000, 0.000, 0.125, 0.000, 0.000, 0.125, 0.000, 0.000, 0.000, -0.375, 0.000, 0.000, 0.000, 0.000, -0.125, 0.000, -0.125, 0.000, 0.125, 0.000, -0.125, 0.125, 0.000, -0.375, 0.000, -0.125, 0.000, 0.000, -0.125, 0.000, 0.000, 0.375, 0.000, 0.000, 0.000, 0.000, 0.000, 0.000, 0.000, 0.000, 0.000, 0.000, 0.125, 0.000, 0.000, 0.000, 0.000, 0.000, 0.000, 0.000, 0.000, 0.000, 0.000, 0.000, 0.125, 0.125, 0.000, 0.000, 0.000, 0.000, 0.000, 0.000, 0.125, 0.000, 0.000, -0.250, 0.000, 0.000, 0.000, 0.000, 0.000, 0.000, 0.000, 0.000, 0.125, 0.000, 0.000, 0.000, 0.000, 0.000, 0.000, 0.000, 0.000, 0.000, 0.000, 0.000, 0.000, 0.000, 0.125, -0.125, 0.000, -0.125, 0.250, -0.375, 0.000, -0.125, -0.125, 0.125, -0.250, 0.000, -0.250, 0.125, -0.125, -0.125, -0.125, 0.375, 0.000, -0.125, 0.250, -0.125, 0.125, 0.000, 0.000, 0.125, -0.125, 0.500, 0.000, 0.000, 0.000, 0.000, 0.000, 0.125, 0.000, 0.000, 0.000, 0.000, 0.000, 0.000, 0.000, 0.000, 0.000, 0.000, 0.000, 0.000, 0.000, 0.000, 0.000, 0.000, 0.000, 0.000, 0.000, 0.000, 0.000, -0.125, 0.000, 0.000, 0.250, 0.000, 0.000, -0.250, 0.000, 0.000, 0.000, -0.125, 0.000, 0.000, 0.125, 0.000, 0.000, 0.000, 0.125, 0.125, 0.000, 0.000, 0.000, 0.000, 0.125, 0.000, 0.000, 0.000, 0.000, 0.000, 0.000, 0.000, -0.125, 0.125, 0.375, 0.000, 0.125, -0.125, 0.000, -0.125, 0.125, 0.000, -0.125, 0.125, 0.000, 0.000, 0.000, 0.500, 0.000, 0.000, 0.000, 0.000, 0.000, 0.000, 0.125, 0.125, 0.000, 0.000, 0.000, 0.000, 0.000, 0.000, 0.000, 0.000, 0.000, 0.000, 0.000, 0.000, 0.000, 0.000, 0.000, 0.000, 0.000, 0.000, 0.000, 0.000, 0.000, 0.000, 0.000, 0.000, 0.000, 0.000, 0.000, 0.000, 0.000, 0.000, 0.000, 0.000, -0.125, 0.000, 0.000, -0.125, 0.000, 0.125, 0.000, 0.000, 0.000, 0.000, 0.125, 0.000, 0.000, 0.000, 0.000, 0.125, 0.000, 0.000, 0.000, 0.000, 0.000, 0.000, 0.000, -0.125, 0.000, 0.000, 0.000, -0.125, 0.000, 0.000, 0.000, 0.000, 0.000, -0.125, 0.000, 0.000, 0.000, 0.000, 0.000, 0.000, 0.000, 0.000, 0.000, 0.000, 0.000, 0.000, 0.125, 0.000, 0.000, -0.125, 0.000, 0.000, 0.125, 0.000, 0.000, 0.000, 0.250, 0.000, 0.000, 0.000, 0.000, 0.000, 0.000, 0.000, 0.000, 0.000, 0.000, 0.000, 0.000, 0.000, 0.000, 0.000, 0.000, 0.000, 0.000, 0.000, 0.125, 0.000, 0.000, 0.000, 0.000, 0.000, 0.000, 0.125, 0.250, 0.000, 0.000, 0.250, 0.000, -0.125, 0.000, 0.125, 0.125, 0.125, 0.000, 0.125, -0.125, -0.125, 0.000, 0.000, 0.000, -0.125, 0.000, 0.000, 0.000, -0.125, 0.000, 0.125, 0.000, 0.000, -0.125, -0.125, 0.125, 0.000, 0.000, 0.250, 0.125, -0.125, 0.000, -0.125, 0.000, 0.125, -0.125, 0.000, -0.125, 0.125, 0.000, 0.000, 0.125, -0.125, -0.125, 0.000, 0.000, 0.000, 0.125, 0.000, 0.000, -0.125, -0.125, 0.000, 0.250, 0.000, 0.000, 0.000, 0.000, 0.000, 0.125, 0.000, 0.000, 0.000, 0.000, 0.000, 0.000, -0.125, 0.000, 0.000, 0.000, 0.000, 0.000, 0.000, 0.125, 0.000, 0.000, 0.000, 0.000, 0.000, 0.000, -0.125, 0.500, 0.125, 0.000, 0.250, 0.000, 0.000, -0.125, 0.000, 0.125, -0.250, 0.125, 0.125, -0.125, 0.250, 0.125, 0.000, 0.125, 0.125, 0.000, -0.125, 0.125, 0.125, -0.125, 0.250, 0.250, 0.125, 0.250, -0.250, 0.375, 0.250, 0.375, -0.125, 0.000, 0.250, -0.125, 0.125, 0.250, 0.125, 0.000, 0.000, -0.250, -0.125, 0.375, -0.125, 0.000, 0.000, -0.125, 0.000, 0.000, -0.125, 0.125, -0.125, 0.250, 0.250, -0.125, -0.500, 0.500, 0.500, 0.250, 0.125, -0.125, -0.125, -0.375, 0.000, -0.375, 0.125, 0.000, 0.000, 0.625, 0.625, 0.000, -0.250, 0.000, 0.000, 0.125, 0.000, -0.125, -0.125, -0.250, 0.000, 0.000, 0.125, 0.125, -0.250, 0.625, 0.125, -0.125, 0.000, 0.250, -0.125, 0.125, -0.250, 0.625, 0.125, -0.125, -0.125, -0.125, -0.125, -0.125, -0.250, 0.125, -0.125, 0.000, 0.000, 0.125, 0.000, -0.250, 0.000, 0.250, -0.125, 0.250, -0.125, 0.000, -0.250, -0.125, 0.250, 0.250, 0.250, -0.125, -0.125, 0.375, 0.125, 0.125, 0.250, 0.000, -0.375, -0.125, 0.000, -0.125, 0.000, -0.125, 0.125, 0.375, 0.250, -0.250, -0.125, 0.125, 0.250, 0.250, 0.000, 0.625, 0.875, -0.500, 0.000, 0.125, 0.000, -0.875, 0.000, -0.250, -0.250, 0.125, 0.000, -0.250, 0.625, -0.125, 0.125, 0.375, 0.000, -0.625, -0.125, 0.125, 0.125, -0.250, 0.125, 0.000, 0.250, 0.000, -0.250, 0.250, -0.125, -0.125, 0.125, -0.125, 0.125, 0.125, 0.250, 0.125, 0.125, 0.000, -0.125, 0.000, 0.000, 0.000, 0.125, 0.125, 0.125, -0.250, 0.250, 0.250, 0.000, 0.125, -0.125, -0.125, 0.125, 0.375, 0.125, -0.250, 0.000, 0.000, -0.375, 0.250, -0.375, -0.125, 0.125, 0.250, 0.000, 0.125, 0.125, 0.000, 0.000, -0.375, -0.125, 0.125, 0.250, 0.000, -0.125, 0.000, -0.750, 0.000, 0.000, 0.125, -0.375, 0.250, 0.000, 0.000, 0.000, 0.000, 0.000, 0.000, 0.000, 0.000, 0.000, -0.375, 0.125, 0.000, 0.000, -0.125, 0.000, 0.000, 0.000, 0.000, 0.000, 0.000, 0.000, -0.125, 0.000, 0.000, 0.000, 0.000, 0.000, 0.000, 0.000, 0.125, 0.000, 0.000, -0.250, 0.125, 0.000, 0.000, 0.000, 0.000, 0.000, 0.000, 0.125, 0.000, 0.000, 0.125, -0.125, 0.000, 0.000, 0.000, 0.000, 0.000, 0.125, 0.000, 0.000, -0.125, -0.125, 0.000, 0.000, 0.125, 0.625, -0.125, 0.000, 0.500, 0.000, 0.000, 0.625, -0.125, 0.000, 0.250, 0.375, 0.000, -0.125, -0.375, 0.000, 0.000, 0.000, 0.000, -0.625, 0.000, -0.375, 0.500, 0.000, -0.750, -0.625, 0.875, 0.375, -0.250, 0.125, -0.125, 0.125, 0.125, -0.125, -0.250, 0.125, -0.125, 1.125, -0.875, 0.000, -0.250, -0.125, -0.375, 0.125, 1.000, 0.500, -0.625, 0.000, 0.000, -0.250, 0.125, -0.750, 0.125, 0.125, 0.000, -0.125, 0.125, 0.000, 0.000, -0.125, 0.000, -0.125, 0.000, 0.000, -0.125, 0.000, 0.000, 0.000, 0.000, 0.000, 0.125, 0.000, 0.000, 0.000, 0.125, 0.125, 0.000, 0.000, 0.000, 0.000, -0.250, -0.125, 0.000, 0.375, 0.125, -0.375, -0.250, -0.125, -0.250, -0.125, 0.750, 0.000, -0.125, 0.000, 0.250, -0.125, -0.125, 0.125, -0.375, -0.125, 0.000, 0.000, 0.375, -0.250, 0.625, -0.250, 0.125, 0.000, -0.250, -0.250, 0.000, -0.125, 0.000, -0.750, 0.125, 0.000, 0.125, 0.000, -0.125, 0.000, 0.000, 1.000, -0.125, -0.125, 0.125, 0.500, -0.125, 0.125, -0.250, -0.250, -0.375, -0.125, 0.000, -0.125, 0.375, 0.000, -0.125, 0.000, 0.000, 0.000, 0.250, -0.125, 0.000, 0.000, 0.250, 0.125, 0.375, -0.250, 0.000, 0.000, 0.000, 0.125, 0.000, 0.000, 0.000, 0.000, 0.000, 0.125, 0.000, 0.125, 0.125, 0.250, 0.000, 0.000, 0.000, 0.000, 0.000, 0.250, 0.250, 0.000, -0.125, -0.125, 0.000, -0.375, 0.250, 0.250, -0.250, 0.000, 0.125, -0.375, 0.125, 0.125, -0.125, 0.000, 0.000, 0.000, 0.125, 0.000, 0.125, -0.125, -0.125, 0.000, -0.250, -0.125, -0.250, 0.250, 0.125, -0.250, 0.000, 0.000, 0.125, 0.125, 0.125, 0.125, 0.000, 0.750, 0.250, -0.625, 0.500, -0.125, 0.000, 0.000, -0.500, 0.000, 0.000, 0.000, -0.125, 0.000, -0.750, 0.125, 0.000, 0.125, 0.000, 0.125, 0.250, -0.125, 0.000, 0.375, 0.000, 0.250, 0.000, -0.125, 0.000, -0.125, 0.125, 0.375, 0.125, 0.125, 0.000, 0.000, 0.000, 0.000, -0.125, 0.000, 0.000, 0.125, 0.000, 0.000, 0.000, 0.000, -0.125, 0.125, 0.250, 0.000, 0.000, 0.250, -0.250, -0.125, 0.000, 0.000, 0.125, -0.125, -0.125, -0.125, 0.125, 0.625, -0.125, -0.250, -0.125, -0.125, 0.000, -0.250, 0.125, -0.250, -0.125, 0.125, 0.000, 0.000, -0.250, 0.000, -0.250, -0.500, 0.000, 0.000, -0.375, -0.125, -0.375, 0.125, 0.000, -0.250, 0.000, 0.250, -0.375, -0.125, 0.000, 0.000, -0.500, 0.000, 0.375, -0.125, 0.000, -0.125, 0.875, -0.125, 0.000, 0.000, -0.125, 0.000, 0.000, -0.125, 0.000, 0.125, 0.250, 0.125, -0.250, 0.000, -0.125, -0.125, 0.000, 0.125, 0.125, 0.250, -0.125, -0.125, 0.125, 0.125, 0.000, 0.000, 0.000, 0.000, 0.000, 0.000, -0.125, -0.125, -0.125, 0.125, 0.250, 0.125, -0.250, 0.000, 0.000, -0.125, 0.000, -0.125, 0.125, -0.250, -0.125, 0.000, 0.125, 0.375, 0.125, -0.125, 0.250, -0.125, 0.000, -0.125, -0.125, 0.000, 0.000, -0.125, -0.125, -0.125, -0.250, 0.125, 0.375, -0.375, 0.000, 0.000, 0.000, 0.000, -0.500, 0.375, 0.250, -0.625, 0.000, 0.000, 0.375, 0.250, -0.125, -0.250, 0.250, 0.125, -0.250, 0.000, 0.000, -0.125, -0.125, 0.250, 0.125, 0.000, 0.000, -0.125, 0.125, 0.000, -0.250, 0.250, 0.000, -0.125, 0.125, -0.125, 0.000, 0.000, 0.000, 0.125, 0.000, 0.125, 0.125, 0.125, 0.125, -0.125, -0.125, 0.250, 0.125, -0.125, 0.000, 0.000, 0.000, 0.000, 0.000, 0.125, 0.125, -0.125, 0.125, 0.250, 0.000, -0.125, -0.125, 0.125, -0.250, 0.125, 0.000, -0.250, -0.125, 0.125, 0.250, 0.000, 0.000, -0.125, 0.250, -0.125, -0.125, 0.000, 0.000, -0.125, 0.250, 0.125, -0.250, -0.125, 0.000, -0.250, -0.125, -0.125, 0.000, 0.125, -0.125, 0.250, -0.250, 0.250, 0.125, 0.000, -0.250, 0.000, -0.125, 0.250, -0.250, 0.000, 0.000, -0.125, 0.000, 0.000, 0.125, 0.250, -0.125, 0.000, 0.000, -0.125, 0.250, 0.125, -0.125, 0.125, 0.250, -0.125, 0.125, 0.125, -0.250, 0.125, -0.125, 0.250, 0.000, -0.125, 0.250, 0.000, 0.125, 0.125, 0.000, 0.250, 0.250, 0.125, -0.125, 0.125, -0.125, -0.125, 0.000, 0.000, 0.125, 0.125, 0.000, 0.125, 0.000, -0.125, -0.250, 0.125, -0.250, -0.125, -0.250, 0.000, 0.250, -0.375, -0.125, -0.125, 0.000, 0.000, 0.000, -0.125, -0.250, 0.125, 0.250, 0.250, 0.125, -0.125, 0.125, 0.000, 0.125, 0.125, -0.125, 0.125, 0.000, 0.125, 0.000, -0.125, 0.125, 0.000, 0.000, 0.000, 0.125, -0.125, -0.375, 0.125, 0.000, 0.000, -0.125, -0.125, -0.125, 0.000, 0.250, 0.000, -0.250, 0.000, 0.000, -0.125, 0.000, 0.250, -0.125, -0.125, 0.125, 0.125, 0.000, 0.000, -0.250, -0.125, -0.125, 0.000, 0.250, 0.125, -0.125, 0.000, -0.125, -0.125, -0.125, -0.125, 0.125, -0.125, -0.125, 0.125, 0.000, 0.000, 0.000, 0.000, -0.250, -0.125, 0.125, -0.125, 0.000, 0.000, 0.125, -0.125, -0.250, 0.125, -0.125, 0.125, 0.000, 0.000, 0.375, 0.125, -0.125, -0.125, 0.125, 0.125, 0.125, 0.125, 0.125, -0.125, -0.125, 0.125, 0.250, 0.000, 0.125, 0.125, 0.000, 0.000, -0.125, 0.375, -0.125, -0.125, 0.000, -0.250, 0.125, 0.000, 0.250, -0.125, -0.250, 0.000, 0.000, 0.125, 0.000, 0.125, 0.000, 0.250, 0.125, -0.250, 0.000, 0.125, 0.000, -0.125, -0.125, -0.125, 0.000, -0.125, -0.125, 0.000, 0.000, 0.125, -0.250, -0.250, -0.125, -0.125, 0.125, 0.000, 0.125, -0.125, 0.000, -0.125, -0.125, 0.125, -0.125, 0.000, 0.250, -0.125, -0.125, 0.000, 0.000, 0.000, 0.000, -0.125, -0.125, -0.125, 0.125, 0.000, 0.000, -0.125, 0.125, 0.000, 0.000, 0.000, 0.500, 0.000, 0.000, 0.125, -0.125, 0.250, -0.125, 0.250, 0.125, 0.250, -0.125, -0.125, 0.125, 0.250, 0.000, 0.000, -0.375, -0.125, -0.125, 0.000, 0.000, -0.375, 0.125, 0.125, -0.750, 0.500, -0.125, 0.000, -0.125, 0.000, -0.375, 0.125, -0.375, 0.000, 0.000, -0.250, 0.000, -0.250, 0.000, 0.125, 0.250, 0.125, 0.000, 0.125, 0.125, 0.000, 0.125, 0.125, -0.125, 0.000, 0.000, 0.000, 0.125, 0.000, 0.125, 0.125, 0.250, -0.250, 0.000, -0.125, -0.125, 0.000, -0.125, -0.125, 0.125, 0.000, 0.000, 0.000, -0.125, -0.125, 0.000};
bias2_t b2[28] = {0.125, 0.125, 0.000, 0.000, 0.000, -0.125, -0.125, 0.125, 0.000, 0.125, 0.000, 0.000, -0.250, 0.250, 0.125, -0.125, 0.000, 0.000, -0.125, 0.000, -0.125, -0.375, 0.000, 0.000, 0.000, -0.125, -0.125, -0.125};
weight4_t w4[420] = {-0.625, -0.250, -0.125, -0.625, -0.250, 0.000, 0.250, -1.125, -0.500, 0.000, -0.125, 0.125, 0.000, -0.625, 0.000, 0.250, -0.500, 0.000, -0.375, -0.500, -0.125, 0.125, -0.375, 0.625, -0.500, 0.125, 0.375, -0.250, -0.125, 0.250, -0.625, 0.125, -0.125, 0.000, -0.500, 0.125, 0.000, -1.000, -0.500, -0.500, 0.000, 0.125, 0.125, -0.875, 0.125, -1.250, -0.250, 0.375, 0.000, -0.625, 0.000, 0.250, -0.875, -0.500, -0.125, 0.000, -0.125, -0.125, -0.250, -0.250, -1.250, -0.125, -0.125, 0.125, -0.500, 0.000, -0.250, -1.125, -0.625, 0.000, -0.250, 0.000, -0.375, -0.750, -0.125, -1.000, -0.125, -0.125, -0.625, -0.875, -0.625, 0.125, -0.375, -1.000, -0.500, -0.375, -0.250, -0.375, -0.750, 0.000, -1.250, 0.125, 0.125, 0.125, -0.375, 0.000, -0.375, -1.000, -0.625, -0.250, 0.125, 0.000, -0.125, -0.625, 0.375, -0.875, -0.125, 0.125, 0.000, -0.375, -0.125, -0.125, -1.125, -0.500, 0.000, -0.125, 0.250, 0.000, -0.125, -0.125, -1.000, 0.125, 0.000, 0.000, -0.875, -0.125, -0.250, -0.625, -0.375, -0.250, -0.125, 0.375, -0.125, -0.250, 0.250, -1.125, -0.375, 0.125, -0.375, -0.500, 0.000, 0.125, -1.000, -0.875, -0.500, -0.125, 0.250, 0.125, -0.125, -0.500, -1.125, -0.375, 0.375, -0.750, -0.625, 0.375, 0.000, -1.000, -1.125, 0.500, 0.375, 0.250, 0.500, -0.875, -0.500, -0.625, 0.000, 0.250, 0.250, 0.500, 0.125, -0.250, -0.875, -0.500, -0.500, 0.125, 0.125, 0.250, -0.875, -0.125, -0.625, -0.375, -0.250, -0.125, -0.625, -0.125, 0.000, 1.000, -0.625, -0.375, 0.125, -0.250, -0.375, -0.500, -0.375, -1.250, -0.250, 0.125, -0.125, 0.500, 0.125, 0.000, -0.750, 0.375, -0.750, 0.125, 0.250, 0.000, 0.000, -0.375, -1.125, -0.125, 0.000, -0.500, 0.375, 0.000, 0.000, -1.000, 0.500, 0.000, -0.125, 0.250, -0.125, -0.125, -0.250, -0.625, 0.000, 0.000, 0.250, -0.375, -0.125, -0.125, -0.500, 0.500, -0.125, 0.250, 0.000, -0.125, 0.375, -0.125, -1.000, -0.250, -0.125, 0.000, -0.625, 0.000, 0.250, -1.000, -0.875, 0.125, -0.125, 0.000, -0.375, -0.375, 0.125, -1.125, -0.250, 0.250, -0.750, -1.000, 0.375, 0.125, -0.875, -0.875, 0.250, 0.375, 0.125, 0.250, -0.500, -0.625, -0.875, 0.125, -0.125, -0.500, -0.625, 0.000, -0.125, -1.000, -0.750, 0.250, 0.125, 0.000, 0.250, 0.000, 0.125, -0.750, 0.125, -0.125, -0.125, 0.125, 0.125, 0.250, -1.000, -0.625, -0.125, 0.250, 0.250, 0.000, -0.625, 0.000, -0.875, -0.375, 0.000, -0.250, -0.500, -0.125, -0.250, -1.125, -0.875, 0.250, 0.125, -0.125, 0.000, -0.500, -0.125, -1.250, 0.250, -0.250, -0.250, -1.000, -0.375, -0.125, -1.000, 0.875, -1.000, -0.125, -0.375, -0.250, -0.250, 0.375, -1.250, -0.125, 0.000, -0.125, -0.500, 0.000, 0.250, -0.750, -1.125, 0.000, 0.250, 0.000, -0.125, -0.750, 0.000, -0.625, 0.125, -0.125, 0.000, -0.500, 0.125, 0.000, -1.000, -0.250, -0.250, 0.125, 0.250, 0.250, -0.250, 0.125, -1.125, -0.250, 0.000, 0.375, -0.125, 0.250, 0.250, -0.625, -0.625, -0.625, 0.250, 0.000, 0.250, -0.250, -0.125, 0.625, -0.375, -0.250, -0.375, -0.250, -0.125, 0.000, -1.000, -1.000, 0.125, -0.125, -0.375, 0.000, -0.625, -0.250, -0.750, -0.625, 0.125, -0.375, -0.750, -0.375, -0.125, -0.750, -0.750, 0.125, -0.375, -0.250, -0.375, 0.000, -0.375, -1.125, 0.125, -0.375, 0.500, -0.375, -0.500, 0.000, 0.875, -0.875, -0.875, -0.500, -0.125, 0.125, -0.500, 0.250};
bias4_t b4[15] = {-0.875, 0.000, 0.000, -0.125, -0.375, 0.250, 0.125, -0.875, -0.500, 0.000, 0.000, 0.250, 0.125, -0.500, 0.125};
weight6_t w6[120] = {0.250, -0.875, 0.125, 0.250, 0.625, 0.375, -0.625, -0.625, 0.125, -0.125, 0.000, 0.000, 0.000, -0.250, 0.000, 0.000, 0.000, 0.375, 0.000, 0.000, 0.000, 0.000, 0.000, 0.000, 0.000, -0.375, 0.000, 0.000, 0.000, 0.500, 0.000, 0.000, 0.000, 0.000, 0.000, 0.000, 0.375, -0.375, 0.000, 0.000, 0.000, 0.125, 0.000, 0.000, 0.000, 0.000, 0.000, 0.000, 0.000, 0.625, 0.000, 0.000, 0.000, 0.375, 0.000, 0.000, -0.750, -0.500, -0.250, 0.625, -0.750, -0.625, 0.375, 0.125, -0.250, -0.500, 0.375, -0.250, 0.000, -0.500, -0.750, -0.250, 0.000, 0.250, 0.000, 0.000, 0.000, -0.250, 0.000, 0.000, 0.000, 0.000, 0.000, 0.000, 0.000, -0.500, 0.000, 0.000, 0.000, -0.125, 0.000, 0.000, 0.000, 0.625, 0.000, 0.000, 0.000, -0.500, 0.000, 0.000, 0.000, 0.250, 0.000, 0.000, 0.500, -0.250, 0.000, -0.625, -0.500, 0.125, -0.375, -0.500, 0.000, 0.125, 0.000, 0.000, 0.000, -0.250, 0.000, 0.000};
bias6_t b6[8] = {0.000, -0.125, 0.000, 0.000, 0.000, -0.375, 0.000, 0.000};
} // namespace hls4ml_axol1tl_v4
#endif