#ifndef AXOL1TL_V5_WEIGHTS_H_
#define AXOL1TL_V5_WEIGHTS_H_
#include "defines.h"

namespace hls4ml_axol1tl_v5 {
q_dense_weight_t w3[1653] = {0.250, -0.125, 0.125, 0.125, -0.250, -0.125, 0.125, 0.000, 0.125, -0.125, 0.000, -0.250, 0.000, -0.125, 0.125, 0.000, 0.250, 0.375, -0.125, 0.000, -0.125, -0.250, -0.125, 0.000, 0.375, 0.125, -0.250, 0.250, -0.125, -0.125, 0.000, 0.000, 0.250, 0.375, 0.000, -0.125, 0.125, -0.125, 0.250, 0.000, 0.000, 0.000, 0.000, 0.000, -0.125, 0.125, 0.000, 0.000, -0.250, 0.000, -0.125, 0.125, 0.000, 0.125, 0.000, 0.375, -0.125, 0.125, 0.000, 0.250, -0.125, 0.125, -0.250, 0.000, -0.250, 0.250, -0.125, 0.125, 0.250, -0.125, 0.125, -0.250, 0.000, 0.125, 0.000, 0.125, -0.125, -0.125, 0.000, 0.000, -0.250, 0.000, 0.125, -0.125, 0.125, -0.125, 0.125, 0.000, -0.250, -0.125, -0.125, 0.000, -0.125, 0.125, -0.125, 0.125, 0.250, 0.000, -0.125, -0.125, 0.125, 0.000, -0.250, 0.125, 0.000, 0.000, 0.125, 0.000, 0.000, -0.125, 0.000, 0.125, -0.125, -0.250, -0.250, 0.000, 0.000, 0.125, 0.125, 0.000, 0.125, 0.125, 0.000, 0.000, 0.000, 0.000, 0.250, 0.000, -0.250, 0.000, -0.125, -0.125, 0.000, 0.125, 0.000, -0.125, 0.000, 0.125, -0.125, -0.250, 0.125, -0.250, 0.000, 0.250, 0.000, -0.125, 0.000, 0.125, 0.125, 0.125, -0.125, -0.125, 0.000, -0.125, 0.125, -0.125, 0.000, -0.125, 0.000, 0.125, 0.125, 0.000, -0.250, 0.125, 0.000, -0.125, -0.125, -0.250, 0.125, 0.000, 0.000, -0.125, 0.000, 0.125, 0.125, 0.000, 0.000, 0.125, 0.125, 0.125, -0.125, 0.125, 0.125, 0.000, -0.125, -0.250, -0.250, 0.250, 0.000, 0.000, 0.125, -0.250, 0.000, 0.000, 0.125, 0.000, -0.250, 0.250, 0.000, -0.250, -0.125, 0.000, 0.000, 0.000, -0.125, 0.125, 0.000, -0.125, 0.000, 0.000, 0.000, -0.125, 0.125, -0.125, 0.250, 0.125, 0.000, 0.000, 0.125, -0.250, 0.125, -0.125, 0.000, -0.250, -0.125, 0.000, 0.125, 0.000, 0.125, -0.125, -0.125, 0.125, -0.125, -0.125, -0.125, 0.000, 0.000, 0.000, 0.125, -0.250, 0.000, -0.125, -0.250, 0.125, 0.000, 0.000, 0.000, 0.000, -0.125, 0.125, -0.125, 0.125, -0.125, 0.000, -0.250, 0.000, 0.000, 0.000, -0.125, -0.125, 0.125, -0.125, -0.125, -0.125, -0.125, 0.125, 0.250, 0.000, -0.125, 0.000, -0.125, 0.125, -0.125, -0.125, 0.125, 0.125, 0.125, 0.000, -0.125, -0.125, 0.125, 0.000, -0.125, 0.125, 0.125, 0.125, 0.125, -0.125, 0.125, 0.000, 0.250, 0.125, 0.000, -0.250, -0.250, 0.000, 0.000, 0.000, -0.125, 0.000, -0.125, 0.125, 0.000, 0.250, -0.125, 0.000, 0.000, 0.000, 0.250, 0.125, -0.125, -0.125, 0.000, 0.125, -0.125, 0.250, 0.125, 0.250, 0.000, 0.125, -0.125, 0.125, 0.125, 0.000, -0.125, 0.000, 0.250, 0.125, -0.125, 0.125, 0.000, 0.125, 0.000, -0.125, 0.125, -0.125, 0.000, -0.125, -0.125, 0.000, 0.000, -0.125, -0.125, -0.125, -0.125, 0.125, -0.250, 0.000, 0.000, 0.125, 0.000, 0.125, -0.125, -0.125, 0.125, 0.000, -0.125, 0.000, 0.000, 0.000, 0.125, 0.000, 0.250, -0.125, -0.125, 0.125, 0.000, -0.250, 0.000, 0.125, -0.125, 0.000, -0.125, -0.250, 0.000, 0.125, -0.125, 0.125, 0.000, -0.125, 0.000, 0.000, 0.000, -0.125, -0.125, 0.000, 0.000, -0.250, 0.000, -0.125, 0.125, 0.125, -0.250, 0.000, -0.250, -0.125, 0.125, 0.125, 0.000, -0.250, 0.000, 0.125, 0.000, 0.250, -0.125, -0.125, -0.125, 0.000, 0.125, 0.125, -0.250, 0.000, 0.125, 0.125, 0.125, 0.125, 0.000, 0.125, 0.125, -0.250, -0.125, 0.250, 0.000, 0.125, -0.125, -0.125, -0.125, 0.125, 0.000, 0.000, -0.125, 0.000, 0.000, 0.125, 0.125, 0.125, -0.125, 0.000, 0.250, 0.125, 0.000, 0.000, -0.250, -0.250, -0.125, 0.000, -0.125, 0.125, 0.250, 0.000, 0.125, 0.125, -0.125, 0.000, 0.000, 0.000, 0.125, 0.125, 0.125, 0.000, -0.250, -0.250, -0.250, -0.125, -0.125, -0.250, 0.125, -0.250, -0.375, 0.250, 0.000, 0.000, 0.250, 0.250, 0.125, 0.000, -0.125, 0.000, -0.125, -0.125, -0.125, -0.125, -0.125, 0.250, 0.000, 0.000, 0.000, -0.125, 0.250, 0.000, 0.000, 0.125, 0.125, -0.125, -0.125, -0.125, 0.125, 0.125, 0.000, -0.250, 0.000, -0.125, -0.250, 0.000, -0.125, -0.125, 0.000, 0.000, 0.250, 0.000, -0.250, 0.000, -0.125, -0.125, 0.000, -0.125, 0.000, 0.000, 0.125, 0.000, 0.000, 0.000, -0.125, -0.125, -0.125, 0.000, -0.125, 0.000, -0.125, -0.125, -0.125, 0.000, 0.125, 0.125, 0.000, -0.125, -0.125, -0.125, -0.250, 0.125, 0.000, 0.125, -0.250, -0.125, 0.000, -0.125, 0.250, -0.125, -0.125, -0.250, 0.000, -0.125, -0.125, -0.125, 0.125, -0.250, -0.250, -0.125, -0.250, 0.000, -0.125, 0.000, 0.000, -0.125, 0.250, 0.000, 0.000, -0.250, -0.125, 0.000, -0.250, 0.125, 0.250, 0.000, 0.125, 0.000, 0.000, 0.000, 0.000, -0.125, -0.125, 0.125, 0.000, -0.250, 0.125, 0.125, 0.000, 0.250, -0.125, 0.000, 0.125, 0.125, -0.125, 0.000, 0.125, 0.000, 0.000, -0.125, 0.125, 0.000, -0.250, -0.125, 0.000, 0.125, 0.000, -0.125, -0.125, -0.125, 0.000, -0.125, 0.000, 0.000, -0.125, 0.125, 0.000, -0.125, -0.250, -0.125, 0.000, 0.000, 0.000, -0.250, -0.125, -0.125, 0.000, 0.000, 0.125, 0.125, 0.000, 0.000, 0.000, 0.125, 0.125, 0.000, 0.000, 0.000, 0.000, 0.000, 0.000, 0.000, 0.000, 0.000, 0.125, 0.000, 0.000, 0.125, 0.125, 0.000, -0.125, 0.125, -0.125, 0.125, -0.125, 0.250, 0.125, -0.125, 0.000, -0.125, -0.125, -0.125, -0.125, 0.000, -0.125, 0.000, 0.125, 0.000, -0.125, -0.250, 0.000, 0.125, -0.125, 0.125, -0.125, 0.000, -0.125, -0.125, 0.125, 0.250, 0.125, 0.000, -0.125, 0.000, 0.000, 0.000, 0.125, 0.250, -0.250, -0.125, 0.000, -0.250, -0.125, 0.000, 0.000, 0.125, 0.125, -0.125, -0.125, 0.000, 0.000, 0.250, 0.125, 0.000, 0.000, -0.250, 0.000, 0.000, -0.125, -0.125, -0.125, 0.000, 0.000, 0.000, 0.125, 0.125, 0.000, 0.000, 0.125, 0.000, -0.250, -0.125, 0.000, 0.125, 0.000, 0.000, 0.250, 0.125, 0.125, -0.125, -0.125, 0.125, -0.125, 0.000, 0.125, -0.125, 0.125, 0.125, 0.125, 0.000, 0.125, 0.000, -0.125, 0.250, 0.125, -0.125, 0.000, 0.000, 0.000, -0.125, 0.125, 0.125, 0.000, 0.125, -0.125, -0.250, 0.000, 0.125, -0.125, 0.000, 0.000, 0.125, 0.000, -0.125, 0.000, -0.125, 0.125, 0.000, 0.125, 0.000, 0.000, 0.125, -0.250, 0.125, 0.000, -0.250, 0.000, -0.125, 0.250, 0.000, -0.125, 0.000, -0.125, -0.125, 0.125, 0.375, -0.375, 0.375, 0.000, -0.250, -0.375, -0.250, 0.000, -0.250, -0.250, -0.250, -0.250, -0.125, -0.125, 0.375, 0.250, 0.250, 0.375, 0.000, 0.000, -0.250, -0.500, -0.250, -0.125, 0.250, 0.000, -0.500, 0.000, -0.250, -0.125, 0.125, 0.125, 0.125, 0.000, 0.000, 0.000, 0.250, -0.250, 0.250, 0.000, 0.125, 0.000, 0.000, 0.125, 0.000, 0.250, -0.125, -0.125, -0.125, -0.125, 0.000, 0.125, 0.000, 0.000, 0.000, 0.000, -0.250, 0.000, 0.125, 0.125, 0.125, 0.250, 0.125, 0.375, -0.125, 0.250, -0.250, -0.375, -0.375, 0.000, 0.125, 0.125, -0.125, 0.125, 0.000, -0.125, 0.125, -0.125, 0.000, 0.000, 0.125, 0.000, 0.000, -0.250, 0.125, 0.250, -0.125, 0.250, -0.250, -0.500, -0.375, -0.250, -0.500, 0.000, 0.000, 0.500, -0.375, 0.125, 0.250, 0.125, 0.000, 0.375, 0.375, 0.000, 0.000, 0.250, 0.250, -0.500, 0.000, -0.500, 0.000, -0.125, -0.125, -0.625, 0.000, 0.000, -0.250, 0.000, -0.125, 0.000, 0.125, 0.250, -0.125, 0.125, 0.000, 0.375, -0.250, 0.000, -0.125, 0.125, 0.125, 0.125, 0.000, -0.250, -0.125, -0.250, 0.000, -0.125, 0.000, 0.125, 0.125, 0.000, 0.250, 0.000, -0.250, 0.000, -0.250, -0.125, 0.250, -0.375, -0.250, 0.000, 0.375, 0.125, -0.250, -0.375, -0.125, -0.125, -0.375, -0.125, 0.125, -0.125, 0.000, -0.125, 0.125, 0.125, -0.125, -0.250, 0.125, 0.000, -0.125, -0.250, 0.000, 0.125, 0.375, 0.250, 0.000, -0.125, -0.500, -0.125, -0.250, -0.125, 0.250, -0.125, 0.000, 0.250, -0.125, 0.000, 0.125, 0.250, -0.375, 0.125, 0.250, 0.000, -0.250, 0.375, -0.500, 0.000, 0.500, -0.375, -0.375, 0.000, 0.000, 0.000, 0.250, -0.250, 0.250, 0.250, 0.125, 0.000, 0.125, 0.000, 0.000, 0.125, -0.125, -0.125, 0.000, -0.375, 0.125, 0.125, -0.125, 0.000, -0.125, 0.125, -0.125, 0.125, 0.125, 0.125, 0.125, 0.000, 0.250, -0.250, 0.125, -0.125, -0.125, 0.000, 0.125, -0.625, 0.000, 0.125, 0.000, -0.250, 0.000, 0.000, -0.125, 0.000, 0.000, 0.000, -0.250, 0.125, -0.125, 0.000, -0.250, 0.000, 0.000, -0.125, 0.000, -0.125, -0.375, 0.250, -0.125, 0.375, -0.250, 0.125, -0.125, -0.125, -0.250, 0.000, -0.250, 0.375, -0.125, 0.000, -0.250, -0.250, 0.000, 0.375, -0.125, -0.375, -0.125, 0.125, 0.000, 0.125, 0.250, -0.250, 0.000, 0.375, -0.250, -0.375, -0.250, 0.250, -0.125, 0.000, 0.125, 0.125, 0.000, 0.125, 0.000, 0.250, -0.125, 0.125, -0.125, -0.250, 0.125, 0.000, 0.125, -0.250, -0.125, 0.000, 0.000, 0.000, 0.000, 0.125, 0.250, 0.125, -0.125, 0.250, 0.125, -0.125, 0.125, 0.000, -0.125, 0.000, -0.125, 0.000, -0.125, -0.125, -0.125, 0.125, -0.250, -0.250, 0.000, -0.250, -0.250, 0.125, -0.125, -0.250, 0.000, 0.000, -0.125, -0.375, 0.000, 0.000, -0.250, 0.000, -0.250, 0.000, 0.000, -0.125, 0.375, -0.125, -0.125, -0.125, -0.125, -0.125, 0.000, -0.125, 0.250, -0.125, -0.125, 0.250, 0.000, -0.125, 0.250, 0.125, -0.375, -0.125, 0.250, -0.250, 0.125, 0.250, 0.000, 0.125, 0.000, -0.125, -0.250, -0.250, 0.125, 0.125, 0.125, 0.000, 0.000, 0.000, 0.125, 0.125, 0.250, -0.125, 0.125, -0.125, -0.125, 0.125, 0.000, -0.250, 0.125, 0.000, 0.000, 0.125, -0.250, 0.000, -0.125, 0.000, -0.125, -0.250, 0.125, 0.000, 0.250, 0.125, 0.125, 0.000, 0.000, -0.125, 0.125, -0.125, -0.250, -0.125, -0.125, 0.000, -0.125, -0.125, -0.375, 0.125, 0.000, 0.000, 0.000, -0.125, 0.250, -0.125, -0.250, 0.125, -0.375, -0.125, 0.000, 0.000, -0.125, 0.250, 0.000, 0.250, 0.125, 0.000, -0.125, -0.125, -0.125, -0.125, 0.000, -0.125, -0.125, 0.000, -0.125, -0.250, 0.125, -0.125, 0.000, 0.125, -0.125, 0.375, -0.125, -0.250, 0.250, -0.250, -0.125, 0.125, 0.000, 0.000, -0.125, 0.250, 0.000, 0.250, -0.125, 0.000, 0.000, 0.250, 0.000, 0.000, -0.250, 0.000, -0.125, 0.125, 0.125, 0.000, 0.000, -0.125, 0.125, 0.125, -0.125, -0.250, -0.125, 0.125, -0.125, 0.125, 0.000, -0.125, 0.125, 0.125, 0.125, 0.125, 0.000, -0.125, 0.000, -0.125, 0.000, -0.125, 0.000, 0.000, 0.125, 0.250, -0.125, -0.250, -0.125, -0.125, -0.125, 0.125, 0.000, 0.250, 0.000, -0.125, 0.000, 0.125, 0.000, 0.125, 0.125, -0.250, -0.250, 0.125, 0.000, 0.000, 0.000, 0.000, -0.125, -0.125, 0.125, 0.250, 0.000, -0.125, -0.250, -0.125, -0.125, 0.125, 0.000, 0.125, 0.125, -0.250, 0.250, 0.000, -0.125, 0.125, -0.125, 0.000, 0.000, -0.125, 0.125, -0.125, 0.125, 0.125, -0.125, 0.125, 0.250, 0.125, 0.000, 0.000, 0.000, 0.000, 0.000, 0.000, 0.125, 0.250, 0.000, 0.000, 0.125, -0.125, -0.250, 0.000, -0.125, 0.000, -0.250, 0.000, 0.125, -0.125, -0.125, 0.125, 0.000, -0.250, 0.000, -0.250, 0.000, 0.000, 0.125, 0.125, -0.125, -0.125, 0.125, 0.125, 0.125, 0.125, -0.250, 0.125, -0.125, -0.125, 0.125, -0.125, 0.125, 0.000, -0.125, 0.125, 0.250, -0.125, 0.125, 0.125, -0.250, -0.125, 0.000, -0.125, -0.125, 0.000, 0.250, 0.000, 0.125, -0.250, -0.250, -0.125, 0.125, 0.125, -0.125, -0.125, 0.125, 0.000, 0.125, -0.125, -0.125, 0.000, -0.125, 0.125, 0.250, 0.250, -0.250, 0.125, -0.125, -0.125, 0.000, -0.125, 0.000, 0.000, -0.125, 0.125, 0.000, 0.000, 0.125, 0.000, -0.125, 0.000, 0.000, -0.125, 0.000, -0.125, 0.125, 0.000, -0.125, 0.000, 0.000, 0.000, 0.000, 0.125, 0.125, 0.125, -0.125, -0.250, 0.250, 0.000, 0.125, 0.000, 0.125, 0.000, -0.125, 0.000, 0.125, 0.125, 0.125, 0.000, -0.125, 0.125, -0.125, 0.000, -0.125, -0.125, 0.125, 0.000, 0.125, 0.250, 0.125, -0.250, 0.000, -0.125, 0.000, 0.000, 0.000, 0.125, -0.125, 0.125, 0.000, -0.125, 0.000, -0.125, 0.000, 0.000, 0.000, -0.125, 0.125, 0.000, -0.125, 0.000, 0.125, 0.125, -0.125, -0.125, 0.000, -0.125, 0.125, -0.125, 0.000, 0.000, -0.125, -0.250, 0.000, 0.125, 0.000, -0.125, 0.125, -0.125, -0.125, 0.000, 0.000, 0.125, 0.000, -0.125, 0.000, 0.000, 0.125, -0.125, 0.000, -0.125, 0.125, 0.000, 0.125, -0.125, 0.000, 0.125, -0.125, 0.125, -0.125, 0.250, -0.250, 0.125, 0.125, 0.125, -0.125, -0.250, 0.000, 0.125, 0.000, 0.000, -0.125, -0.125, -0.125, -0.125, 0.000, 0.000, 0.125, 0.125, -0.250, 0.125, -0.125, -0.125, 0.000, -0.125, -0.125, -0.250, 0.000, 0.125, 0.000, 0.125, 0.125, -0.250, 0.125, 0.000, 0.125, 0.000, -0.125, 0.000, -0.125, 0.000, 0.000, 0.000, -0.125, 0.000, 0.000, 0.000, 0.125, 0.125, 0.125, 0.000, 0.000, 0.000, -0.125, 0.000, -0.125, 0.000, -0.125, -0.125, 0.125, 0.000, -0.125, 0.000, -0.125, 0.000, 0.000, 0.000, -0.125, -0.125, 0.250, 0.000, 0.000, 0.000, 0.125, 0.000, 0.000, -0.125, 0.000, 0.000, 0.000, 0.125, 0.125, 0.000, 0.125, -0.250, 0.000, 0.000, -0.125, 0.125, -0.125, 0.125, 0.250, 0.000, -0.125, 0.000, 0.000, 0.000, 0.000, 0.000, 0.125, 0.125, 0.000, 0.000, 0.000, -0.250, 0.250, 0.125, 0.000, 0.000, 0.125, 0.000, 0.125, 0.000, -0.125, -0.125, 0.000, 0.000, 0.250, -0.125, 0.125, -0.125, 0.000, -0.125};

q_dense_bias_t b3[29] = {0.000, 0.000, -0.125, 0.125, 0.250, 0.375, 0.000, 0.250, 0.000, 0.250, 0.000, 0.000, 0.125, 0.000, -0.125, 0.000, 0.000, -0.125, 0.000, 0.000, 0.000, 0.000, 0.125, -0.125, 0.000, 0.125, 0.375, 0.125, -0.125};

q_dense_1_weight_t w7[290] = {0.250, -0.375, -0.250, -0.250, 0.250, 0.000, 0.500, -0.125, 0.125, -0.125, -0.250, 0.375, 0.250, -0.250, 0.125, -0.125, 0.000, 0.250, -0.375, 0.375, -0.125, 0.250, 0.375, 0.000, -0.250, 0.250, 0.375, 0.250, 0.000, 0.375, 0.125, 0.000, -0.125, 0.125, -0.125, 0.000, -0.125, 0.000, 0.000, -0.125, -0.375, 0.500, 0.250, -0.375, -0.125, -0.125, -0.125, 0.500, -0.125, -0.125, -0.125, 0.500, 0.125, 0.000, -0.125, 0.000, -0.125, 0.375, 0.000, -0.500, -0.375, 0.375, 0.000, 0.000, 0.000, 0.000, 0.250, -0.125, -0.125, -0.125, -0.250, 0.000, -0.125, -0.375, -0.250, -0.125, -0.125, 0.125, -0.125, -0.250, -0.375, -0.250, 0.250, 0.000, 0.125, 0.250, 0.000, 0.250, -0.250, 0.375, -0.375, 0.375, 0.250, -0.250, -0.125, 0.000, -0.375, 0.125, -0.125, -0.250, 0.000, 0.125, 0.000, -0.125, 0.250, 0.000, -0.125, 0.125, 0.125, 0.000, 0.000, 0.125, -0.250, 0.000, 0.000, -0.250, 0.375, 0.250, 0.125, 0.125, -0.125, 0.250, 0.375, -0.125, -0.250, 0.250, -0.375, 0.375, 0.125, 0.125, 0.000, 0.250, -0.250, 0.125, 0.250, -0.250, -0.250, 0.125, -0.250, 0.000, -0.375, -0.250, -0.125, 0.000, 0.125, 0.125, 0.375, 0.375, 0.125, -0.125, -0.375, 0.000, 0.125, -0.125, 0.000, -0.125, 0.375, 0.000, -0.375, 0.375, -0.250, 0.250, 0.375, -0.375, -0.250, 0.375, -0.125, 0.500, 0.250, 0.250, 0.125, -0.125, 0.000, 0.250, -0.375, 0.250, 0.000, 0.250, -0.250, 0.000, 0.250, -0.125, 0.125, -0.125, 0.250, 0.250, 0.250, 0.250, 0.125, 0.000, 0.250, -0.375, 0.000, 0.000, 0.125, -0.125, -0.250, 0.125, -0.125, 0.250, -0.375, 0.375, 0.000, -0.125, -0.125, 0.000, 0.125, 0.500, 0.125, -0.125, -0.250, 0.000, 0.125, -0.250, 0.375, 0.000, 0.375, -0.125, 0.000, 0.000, -0.125, 0.375, 0.375, 0.125, -0.250, 0.375, -0.125, 0.375, 0.125, 0.000, -0.250, 0.250, 0.250, -0.125, 0.125, 0.250, -0.125, 0.250, -0.125, 0.000, -0.125, 0.000, 0.000, -0.250, -0.250, 0.125, 0.500, -0.125, -0.375, 0.375, 0.000, 0.250, -0.125, 0.000, 0.250, -0.125, 0.000, 0.000, -0.250, -0.250, 0.125, 0.625, 0.250, -0.250, 0.000, 0.250, -0.125, 0.500, -0.250, -0.375, 0.125, -0.250, 0.000, -0.250, -0.250, 0.250, -0.375, -0.125, 0.000, 0.250, 0.125, 0.125, 0.250, -0.375, -0.250, 0.250, 0.250, -0.250, -0.250, 0.250};

q_dense_1_bias_t b7[10] = {-0.125, 0.375, -0.125, -0.125, 0.000, -0.125, -0.125, -0.125, -0.125, -0.125};

q_dense_2_weight_t w11[90] = {0.250, 0.000, 0.375, 0.500, 0.000, -0.250, -0.500, 0.375, 0.000, 0.250, 0.250, -0.375, 0.000, -0.125, 0.125, -0.125, -0.250, 0.250, -0.375, -0.125, 0.375, 0.000, -0.125, 0.500, -0.250, -0.125, 0.250, -0.500, -0.250, 0.500, -0.250, 0.125, 0.375, 0.500, 0.500, -0.500, -0.250, 0.125, 0.000, -0.250, 0.125, -0.375, -0.750, 0.000, 0.500, -0.125, -0.375, -0.625, 0.000, 0.250, -0.500, 0.250, -0.250, -0.250, -0.375, 0.375, -0.375, 0.250, 0.500, -0.875, -1.500, 0.250, 0.250, 0.000, 0.125, -0.125, 0.500, 0.250, 0.125, 0.250, 0.500, -0.250, 0.625, -0.250, 0.500, 0.625, 0.000, 0.000, 0.000, -0.375, -0.250, 0.625, 0.375, 0.000, 0.375, 0.250, 0.375, -0.250, 0.125, 0.125};

q_dense_2_bias_t b11[9] = {-0.125, -0.125, -0.125, -0.125, 0.375, -0.125, -0.125, 0.500, 0.250};

q_dense_3_weight_t w15[54] = {0.250, 0.000, 0.500, 0.375, 0.125, -0.125, -0.500, -0.500, -0.625, -0.375, -0.375, 0.750, 0.375, -0.250, -0.625, 0.125, -0.125, -0.125, 0.500, 0.125, -0.625, 0.125, 0.250, 0.125, -0.375, 0.125, -0.500, -0.625, 0.125, -0.625, 0.500, -0.250, 0.250, -0.125, -0.500, -0.125, 0.250, -0.125, 0.250, -0.125, 0.125, 0.000, -0.375, 0.500, -0.500, -0.375, -1.125, 0.125, -0.125, 0.375, 0.500, 0.125, -0.625, -0.250};

q_dense_3_bias_t b15[6] = {-0.125, 0.375, 0.000, 0.000, -0.125, 0.125};

q_dense_4_weight_t w19[24] = {-0.500, 0.000, 0.500, 0.000, 1.000, -0.250, -0.500, 0.125, 0.500, 0.000, -0.625, 0.375, 0.375, 0.000, -0.625, 0.625, 0.125, -0.625, -0.125, 0.625, -0.125, -0.375, -0.625, 0.125};

q_dense_4_bias_t b19[4] = {-0.250, 0.250, -0.125, -0.250};

q_dense_6_weight_t w21[24] = {-0.375, -0.375, -1.000, -0.875, -0.750, -0.875, 0.375, -0.250, -0.250, 0.250, 0.250, -0.250, 0.000, 0.500, -0.375, 0.375, 0.500, 0.125, 0.125, 0.750, -0.625, 0.250, 0.000, -0.125};

q_dense_6_bias_t b21[6] = {0.625, 0.625, 0.625, 0.500, 0.500, 0.875};

q_dense_7_weight_t w25[54] = {0.625, 0.000, -0.125, -0.750, 0.750, -0.250, 0.500, 1.125, -0.125, 0.750, -0.500, 0.000, 0.000, 0.000, 0.125, -0.125, 0.000, 0.500, 1.000, 0.000, 0.000, 0.125, 0.125, 0.250, -0.250, -0.125, 0.250, 0.125, -0.625, 0.625, 0.125, -0.250, 0.375, -0.375, -0.625, -0.250, -0.250, -0.375, 0.625, 0.000, 0.750, 1.000, 0.125, 0.250, -0.250, 0.250, -0.125, 1.000, -0.750, -0.250, 0.500, 0.250, 0.125, 0.750};

q_dense_7_bias_t b25[9] = {0.625, 0.000, 0.625, 0.875, 0.500, 0.875, 0.375, 0.625, 0.500};

q_dense_8_weight_t w29[90] = {0.125, 0.500, 0.625, -0.250, 0.000, 0.000, -0.250, 0.875, 0.250, 0.000, 0.250, -0.125, -0.250, -0.250, -0.500, 0.000, 0.000, -0.125, -0.250, -0.125, 0.375, 0.875, 0.000, 0.125, -0.250, -0.250, -0.250, -0.125, -0.250, -0.125, 0.250, -1.500, -1.125, 0.125, 0.000, 0.125, 0.875, 0.125, 0.000, 0.625, 0.500, 0.250, 0.875, 0.250, -0.375, 0.375, -0.250, 0.500, -0.125, 0.000, -0.750, 1.000, 0.250, -0.125, 0.500, 0.500, 0.500, 0.875, 0.125, 0.125, -0.250, 0.000, -0.125, -0.125, 0.000, 0.750, 0.000, 0.375, -0.250, 0.125, 0.000, 0.000, 0.000, 0.125, 0.000, 0.250, 0.125, 1.125, 0.000, 0.125, 0.250, 0.375, 0.500, 0.375, -0.250, 0.500, 0.000, 0.875, -0.250, 0.125};

q_dense_8_bias_t b29[10] = {-0.250, 0.625, 0.250, -0.250, 0.375, 0.375, 0.125, 0.500, 0.000, 0.000};

} // namespace hls4ml_axol1tl_v5
#endif
