#ifndef AXOL1TL_V5_WEIGHTS_H_
#define AXOL1TL_V5_WEIGHTS_H_
#include "defines.h"

namespace hls4ml_axol1tl_v5 {
weight2_t w2[1653] = {0.250, -0.125, 0.125, 0.125, -0.250, -0.125, 0.125, 0.000, 0.125, -0.125, 0.000, -0.250, 0.000, -0.125, 0.125, 0.000, 0.250, 0.375, -0.125, 0.000, -0.125, -0.250, -0.125, 0.000, 0.375, 0.125, -0.250, 0.250, -0.125, -0.125, 0.000, 0.000, 0.250, 0.375, 0.000, -0.125, 0.125, -0.125, 0.250, 0.000, 0.000, 0.000, 0.000, 0.000, -0.125, 0.125, 0.000, 0.000, -0.250, 0.000, -0.125, 0.125, 0.000, 0.125, 0.000, 0.375, -0.125, 0.125, 0.000, 0.250, -0.125, 0.125, -0.250, 0.000, -0.250, 0.250, -0.125, 0.125, 0.250, -0.125, 0.125, -0.250, 0.000, 0.125, 0.000, 0.125, -0.125, -0.125, 0.000, 0.000, -0.250, 0.000, 0.125, -0.125, 0.125, -0.125, 0.125, 0.000, -0.250, -0.125, -0.125, 0.000, -0.125, 0.125, -0.125, 0.125, 0.250, 0.000, -0.125, -0.125, 0.125, 0.000, -0.250, 0.125, 0.000, 0.000, 0.125, 0.000, 0.000, -0.125, 0.000, 0.125, -0.125, -0.250, -0.250, 0.000, 0.000, 0.125, 0.125, 0.000, 0.125, 0.125, 0.000, 0.000, 0.000, 0.000, 0.250, 0.000, -0.250, 0.000, -0.125, -0.125, 0.000, 0.125, 0.000, -0.125, 0.000, 0.125, -0.125, -0.250, 0.125, -0.250, 0.000, 0.250, 0.000, -0.125, 0.000, 0.125, 0.125, 0.125, -0.125, -0.125, 0.000, -0.125, 0.125, -0.125, 0.000, -0.125, 0.000, 0.125, 0.125, 0.000, -0.250, 0.125, 0.000, -0.125, -0.125, -0.250, 0.125, 0.000, 0.000, -0.125, 0.000, 0.125, 0.125, 0.000, 0.000, 0.125, 0.125, 0.125, -0.125, 0.125, 0.125, 0.000, -0.125, -0.250, -0.250, 0.250, 0.000, 0.000, 0.125, -0.250, 0.000, 0.000, 0.125, 0.000, -0.250, 0.250, 0.000, -0.250, -0.125, 0.000, 0.000, 0.000, -0.125, 0.125, 0.000, -0.125, 0.000, 0.000, 0.000, -0.125, 0.125, -0.125, 0.250, 0.125, 0.000, 0.000, 0.125, -0.250, 0.125, -0.125, 0.000, -0.250, -0.125, 0.000, 0.125, 0.000, 0.125, -0.125, -0.125, 0.125, -0.125, -0.125, -0.125, 0.000, 0.000, 0.000, 0.125, -0.250, 0.000, -0.125, -0.250, 0.125, 0.000, 0.000, 0.000, 0.000, -0.125, 0.125, -0.125, 0.125, -0.125, 0.000, -0.250, 0.000, 0.000, 0.000, -0.125, -0.125, 0.125, -0.125, -0.125, -0.125, -0.125, 0.125, 0.250, 0.000, -0.125, 0.000, -0.125, 0.125, -0.125, -0.125, 0.125, 0.125, 0.125, 0.000, -0.125, -0.125, 0.125, 0.000, -0.125, 0.125, 0.125, 0.125, 0.125, -0.125, 0.125, 0.000, 0.250, 0.125, 0.000, -0.250, -0.250, 0.000, 0.000, 0.000, -0.125, 0.000, -0.125, 0.125, 0.000, 0.250, -0.125, 0.000, 0.000, 0.000, 0.250, 0.125, -0.125, -0.125, 0.000, 0.125, -0.125, 0.250, 0.125, 0.250, 0.000, 0.125, -0.125, 0.125, 0.125, 0.000, -0.125, 0.000, 0.250, 0.125, -0.125, 0.125, 0.000, 0.125, 0.000, -0.125, 0.125, -0.125, 0.000, -0.125, -0.125, 0.000, 0.000, -0.125, -0.125, -0.125, -0.125, 0.125, -0.250, 0.000, 0.000, 0.125, 0.000, 0.125, -0.125, -0.125, 0.125, 0.000, -0.125, 0.000, 0.000, 0.000, 0.125, 0.000, 0.250, -0.125, -0.125, 0.125, 0.000, -0.250, 0.000, 0.125, -0.125, 0.000, -0.125, -0.250, 0.000, 0.125, -0.125, 0.125, 0.000, -0.125, 0.000, 0.000, 0.000, -0.125, -0.125, 0.000, 0.000, -0.250, 0.000, -0.125, 0.125, 0.125, -0.250, 0.000, -0.250, -0.125, 0.125, 0.125, 0.000, -0.250, 0.000, 0.125, 0.000, 0.250, -0.125, -0.125, -0.125, 0.000, 0.125, 0.125, -0.250, 0.000, 0.125, 0.125, 0.125, 0.125, 0.000, 0.125, 0.125, -0.250, -0.125, 0.250, 0.000, 0.125, -0.125, -0.125, -0.125, 0.125, 0.000, 0.000, -0.125, 0.000, 0.000, 0.125, 0.125, 0.125, -0.125, 0.000, 0.250, 0.125, 0.000, 0.000, -0.250, -0.250, -0.125, 0.000, -0.125, 0.125, 0.250, 0.000, 0.125, 0.125, -0.125, 0.000, 0.000, 0.000, 0.125, 0.125, 0.125, 0.000, -0.250, -0.250, -0.250, -0.125, -0.125, -0.250, 0.125, -0.250, -0.375, 0.250, 0.000, 0.000, 0.250, 0.250, 0.125, 0.000, -0.125, 0.000, -0.125, -0.125, -0.125, -0.125, -0.125, 0.250, 0.000, 0.000, 0.000, -0.125, 0.250, 0.000, 0.000, 0.125, 0.125, -0.125, -0.125, -0.125, 0.125, 0.125, 0.000, -0.250, 0.000, -0.125, -0.250, 0.000, -0.125, -0.125, 0.000, 0.000, 0.250, 0.000, -0.250, 0.000, -0.125, -0.125, 0.000, -0.125, 0.000, 0.000, 0.125, 0.000, 0.000, 0.000, -0.125, -0.125, -0.125, 0.000, -0.125, 0.000, -0.125, -0.125, -0.125, 0.000, 0.125, 0.125, 0.000, -0.125, -0.125, -0.125, -0.250, 0.125, 0.000, 0.125, -0.250, -0.125, 0.000, -0.125, 0.250, -0.125, -0.125, -0.250, 0.000, -0.125, -0.125, -0.125, 0.125, -0.250, -0.250, -0.125, -0.250, 0.000, -0.125, 0.000, 0.000, -0.125, 0.250, 0.000, 0.000, -0.250, -0.125, 0.000, -0.250, 0.125, 0.250, 0.000, 0.125, 0.000, 0.000, 0.000, 0.000, -0.125, -0.125, 0.125, 0.000, -0.250, 0.125, 0.125, 0.000, 0.250, -0.125, 0.000, 0.125, 0.125, -0.125, 0.000, 0.125, 0.000, 0.000, -0.125, 0.125, 0.000, -0.250, -0.125, 0.000, 0.125, 0.000, -0.125, -0.125, -0.125, 0.000, -0.125, 0.000, 0.000, -0.125, 0.125, 0.000, -0.125, -0.250, -0.125, 0.000, 0.000, 0.000, -0.250, -0.125, -0.125, 0.000, 0.000, 0.125, 0.125, 0.000, 0.000, 0.000, 0.125, 0.125, 0.000, 0.000, 0.000, 0.000, 0.000, 0.000, 0.000, 0.000, 0.000, 0.125, 0.000, 0.000, 0.125, 0.125, 0.000, -0.125, 0.125, -0.125, 0.125, -0.125, 0.250, 0.125, -0.125, 0.000, -0.125, -0.125, -0.125, -0.125, 0.000, -0.125, 0.000, 0.125, 0.000, -0.125, -0.250, 0.000, 0.125, -0.125, 0.125, -0.125, 0.000, -0.125, -0.125, 0.125, 0.250, 0.125, 0.000, -0.125, 0.000, 0.000, 0.000, 0.125, 0.250, -0.250, -0.125, 0.000, -0.250, -0.125, 0.000, 0.000, 0.125, 0.125, -0.125, -0.125, 0.000, 0.000, 0.250, 0.125, 0.000, 0.000, -0.250, 0.000, 0.000, -0.125, -0.125, -0.125, 0.000, 0.000, 0.000, 0.125, 0.125, 0.000, 0.000, 0.125, 0.000, -0.250, -0.125, 0.000, 0.125, 0.000, 0.000, 0.250, 0.125, 0.125, -0.125, -0.125, 0.125, -0.125, 0.000, 0.125, -0.125, 0.125, 0.125, 0.125, 0.000, 0.125, 0.000, -0.125, 0.250, 0.125, -0.125, 0.000, 0.000, 0.000, -0.125, 0.125, 0.125, 0.000, 0.125, -0.125, -0.250, 0.000, 0.125, -0.125, 0.000, 0.000, 0.125, 0.000, -0.125, 0.000, -0.125, 0.125, 0.000, 0.125, 0.000, 0.000, 0.125, -0.250, 0.125, 0.000, -0.250, 0.000, -0.125, 0.250, 0.000, -0.125, 0.000, -0.125, -0.125, 0.125, 0.375, -0.375, 0.375, 0.000, -0.250, -0.375, -0.250, 0.000, -0.250, -0.250, -0.250, -0.250, -0.125, -0.125, 0.375, 0.250, 0.250, 0.375, 0.000, 0.000, -0.250, -0.500, -0.250, -0.125, 0.250, 0.000, -0.500, 0.000, -0.250, -0.125, 0.125, 0.125, 0.125, 0.000, 0.000, 0.000, 0.250, -0.250, 0.250, 0.000, 0.125, 0.000, 0.000, 0.125, 0.000, 0.250, -0.125, -0.125, -0.125, -0.125, 0.000, 0.125, 0.000, 0.000, 0.000, 0.000, -0.250, 0.000, 0.125, 0.125, 0.125, 0.250, 0.125, 0.375, -0.125, 0.250, -0.250, -0.375, -0.375, 0.000, 0.125, 0.125, -0.125, 0.125, 0.000, -0.125, 0.125, -0.125, 0.000, 0.000, 0.125, 0.000, 0.000, -0.250, 0.125, 0.250, -0.125, 0.250, -0.250, -0.500, -0.375, -0.250, -0.500, 0.000, 0.000, 0.500, -0.375, 0.125, 0.250, 0.125, 0.000, 0.375, 0.375, 0.000, 0.000, 0.250, 0.250, -0.500, 0.000, -0.500, 0.000, -0.125, -0.125, -0.625, 0.000, 0.000, -0.250, 0.000, -0.125, 0.000, 0.125, 0.250, -0.125, 0.125, 0.000, 0.375, -0.250, 0.000, -0.125, 0.125, 0.125, 0.125, 0.000, -0.250, -0.125, -0.250, 0.000, -0.125, 0.000, 0.125, 0.125, 0.000, 0.250, 0.000, -0.250, 0.000, -0.250, -0.125, 0.250, -0.375, -0.250, 0.000, 0.375, 0.125, -0.250, -0.375, -0.125, -0.125, -0.375, -0.125, 0.125, -0.125, 0.000, -0.125, 0.125, 0.125, -0.125, -0.250, 0.125, 0.000, -0.125, -0.250, 0.000, 0.125, 0.375, 0.250, 0.000, -0.125, -0.500, -0.125, -0.250, -0.125, 0.250, -0.125, 0.000, 0.250, -0.125, 0.000, 0.125, 0.250, -0.375, 0.125, 0.250, 0.000, -0.250, 0.375, -0.500, 0.000, 0.500, -0.375, -0.375, 0.000, 0.000, 0.000, 0.250, -0.250, 0.250, 0.250, 0.125, 0.000, 0.125, 0.000, 0.000, 0.125, -0.125, -0.125, 0.000, -0.375, 0.125, 0.125, -0.125, 0.000, -0.125, 0.125, -0.125, 0.125, 0.125, 0.125, 0.125, 0.000, 0.250, -0.250, 0.125, -0.125, -0.125, 0.000, 0.125, -0.625, 0.000, 0.125, 0.000, -0.250, 0.000, 0.000, -0.125, 0.000, 0.000, 0.000, -0.250, 0.125, -0.125, 0.000, -0.250, 0.000, 0.000, -0.125, 0.000, -0.125, -0.375, 0.250, -0.125, 0.375, -0.250, 0.125, -0.125, -0.125, -0.250, 0.000, -0.250, 0.375, -0.125, 0.000, -0.250, -0.250, 0.000, 0.375, -0.125, -0.375, -0.125, 0.125, 0.000, 0.125, 0.250, -0.250, 0.000, 0.375, -0.250, -0.375, -0.250, 0.250, -0.125, 0.000, 0.125, 0.125, 0.000, 0.125, 0.000, 0.250, -0.125, 0.125, -0.125, -0.250, 0.125, 0.000, 0.125, -0.250, -0.125, 0.000, 0.000, 0.000, 0.000, 0.125, 0.250, 0.125, -0.125, 0.250, 0.125, -0.125, 0.125, 0.000, -0.125, 0.000, -0.125, 0.000, -0.125, -0.125, -0.125, 0.125, -0.250, -0.250, 0.000, -0.250, -0.250, 0.125, -0.125, -0.250, 0.000, 0.000, -0.125, -0.375, 0.000, 0.000, -0.250, 0.000, -0.250, 0.000, 0.000, -0.125, 0.375, -0.125, -0.125, -0.125, -0.125, -0.125, 0.000, -0.125, 0.250, -0.125, -0.125, 0.250, 0.000, -0.125, 0.250, 0.125, -0.375, -0.125, 0.250, -0.250, 0.125, 0.250, 0.000, 0.125, 0.000, -0.125, -0.250, -0.250, 0.125, 0.125, 0.125, 0.000, 0.000, 0.000, 0.125, 0.125, 0.250, -0.125, 0.125, -0.125, -0.125, 0.125, 0.000, -0.250, 0.125, 0.000, 0.000, 0.125, -0.250, 0.000, -0.125, 0.000, -0.125, -0.250, 0.125, 0.000, 0.250, 0.125, 0.125, 0.000, 0.000, -0.125, 0.125, -0.125, -0.250, -0.125, -0.125, 0.000, -0.125, -0.125, -0.375, 0.125, 0.000, 0.000, 0.000, -0.125, 0.250, -0.125, -0.250, 0.125, -0.375, -0.125, 0.000, 0.000, -0.125, 0.250, 0.000, 0.250, 0.125, 0.000, -0.125, -0.125, -0.125, -0.125, 0.000, -0.125, -0.125, 0.000, -0.125, -0.250, 0.125, -0.125, 0.000, 0.125, -0.125, 0.375, -0.125, -0.250, 0.250, -0.250, -0.125, 0.125, 0.000, 0.000, -0.125, 0.250, 0.000, 0.250, -0.125, 0.000, 0.000, 0.250, 0.000, 0.000, -0.250, 0.000, -0.125, 0.125, 0.125, 0.000, 0.000, -0.125, 0.125, 0.125, -0.125, -0.250, -0.125, 0.125, -0.125, 0.125, 0.000, -0.125, 0.125, 0.125, 0.125, 0.125, 0.000, -0.125, 0.000, -0.125, 0.000, -0.125, 0.000, 0.000, 0.125, 0.250, -0.125, -0.250, -0.125, -0.125, -0.125, 0.125, 0.000, 0.250, 0.000, -0.125, 0.000, 0.125, 0.000, 0.125, 0.125, -0.250, -0.250, 0.125, 0.000, 0.000, 0.000, 0.000, -0.125, -0.125, 0.125, 0.250, 0.000, -0.125, -0.250, -0.125, -0.125, 0.125, 0.000, 0.125, 0.125, -0.250, 0.250, 0.000, -0.125, 0.125, -0.125, 0.000, 0.000, -0.125, 0.125, -0.125, 0.125, 0.125, -0.125, 0.125, 0.250, 0.125, 0.000, 0.000, 0.000, 0.000, 0.000, 0.000, 0.125, 0.250, 0.000, 0.000, 0.125, -0.125, -0.250, 0.000, -0.125, 0.000, -0.250, 0.000, 0.125, -0.125, -0.125, 0.125, 0.000, -0.250, 0.000, -0.250, 0.000, 0.000, 0.125, 0.125, -0.125, -0.125, 0.125, 0.125, 0.125, 0.125, -0.250, 0.125, -0.125, -0.125, 0.125, -0.125, 0.125, 0.000, -0.125, 0.125, 0.250, -0.125, 0.125, 0.125, -0.250, -0.125, 0.000, -0.125, -0.125, 0.000, 0.250, 0.000, 0.125, -0.250, -0.250, -0.125, 0.125, 0.125, -0.125, -0.125, 0.125, 0.000, 0.125, -0.125, -0.125, 0.000, -0.125, 0.125, 0.250, 0.250, -0.250, 0.125, -0.125, -0.125, 0.000, -0.125, 0.000, 0.000, -0.125, 0.125, 0.000, 0.000, 0.125, 0.000, -0.125, 0.000, 0.000, -0.125, 0.000, -0.125, 0.125, 0.000, -0.125, 0.000, 0.000, 0.000, 0.000, 0.125, 0.125, 0.125, -0.125, -0.250, 0.250, 0.000, 0.125, 0.000, 0.125, 0.000, -0.125, 0.000, 0.125, 0.125, 0.125, 0.000, -0.125, 0.125, -0.125, 0.000, -0.125, -0.125, 0.125, 0.000, 0.125, 0.250, 0.125, -0.250, 0.000, -0.125, 0.000, 0.000, 0.000, 0.125, -0.125, 0.125, 0.000, -0.125, 0.000, -0.125, 0.000, 0.000, 0.000, -0.125, 0.125, 0.000, -0.125, 0.000, 0.125, 0.125, -0.125, -0.125, 0.000, -0.125, 0.125, -0.125, 0.000, 0.000, -0.125, -0.250, 0.000, 0.125, 0.000, -0.125, 0.125, -0.125, -0.125, 0.000, 0.000, 0.125, 0.000, -0.125, 0.000, 0.000, 0.125, -0.125, 0.000, -0.125, 0.125, 0.000, 0.125, -0.125, 0.000, 0.125, -0.125, 0.125, -0.125, 0.250, -0.250, 0.125, 0.125, 0.125, -0.125, -0.250, 0.000, 0.125, 0.000, 0.000, -0.125, -0.125, -0.125, -0.125, 0.000, 0.000, 0.125, 0.125, -0.250, 0.125, -0.125, -0.125, 0.000, -0.125, -0.125, -0.250, 0.000, 0.125, 0.000, 0.125, 0.125, -0.250, 0.125, 0.000, 0.125, 0.000, -0.125, 0.000, -0.125, 0.000, 0.000, 0.000, -0.125, 0.000, 0.000, 0.000, 0.125, 0.125, 0.125, 0.000, 0.000, 0.000, -0.125, 0.000, -0.125, 0.000, -0.125, -0.125, 0.125, 0.000, -0.125, 0.000, -0.125, 0.000, 0.000, 0.000, -0.125, -0.125, 0.250, 0.000, 0.000, 0.000, 0.125, 0.000, 0.000, -0.125, 0.000, 0.000, 0.000, 0.125, 0.125, 0.000, 0.125, -0.250, 0.000, 0.000, -0.125, 0.125, -0.125, 0.125, 0.250, 0.000, -0.125, 0.000, 0.000, 0.000, 0.000, 0.000, 0.125, 0.125, 0.000, 0.000, 0.000, -0.250, 0.250, 0.125, 0.000, 0.000, 0.125, 0.000, 0.125, 0.000, -0.125, -0.125, 0.000, 0.000, 0.250, -0.125, 0.125, -0.125, 0.000, -0.125};

bias2_t b2[29] = {0.000, 0.000, -0.125, 0.125, 0.250, 0.375, 0.000, 0.250, 0.000, 0.250, 0.000, 0.000, 0.125, 0.000, -0.125, 0.000, 0.000, -0.125, 0.000, 0.000, 0.000, 0.000, 0.125, -0.125, 0.000, 0.125, 0.375, 0.125, -0.125};

weight4_t w4[290] = {0.250, -0.375, -0.250, -0.250, 0.250, 0.000, 0.500, -0.125, 0.125, -0.125, -0.250, 0.375, 0.250, -0.250, 0.125, -0.125, 0.000, 0.250, -0.375, 0.375, -0.125, 0.250, 0.375, 0.000, -0.250, 0.250, 0.375, 0.250, 0.000, 0.375, 0.125, 0.000, -0.125, 0.125, -0.125, 0.000, -0.125, 0.000, 0.000, -0.125, -0.375, 0.500, 0.250, -0.375, -0.125, -0.125, -0.125, 0.500, -0.125, -0.125, -0.125, 0.500, 0.125, 0.000, -0.125, 0.000, -0.125, 0.375, 0.000, -0.500, -0.375, 0.375, 0.000, 0.000, 0.000, 0.000, 0.250, -0.125, -0.125, -0.125, -0.250, 0.000, -0.125, -0.375, -0.250, -0.125, -0.125, 0.125, -0.125, -0.250, -0.375, -0.250, 0.250, 0.000, 0.125, 0.250, 0.000, 0.250, -0.250, 0.375, -0.375, 0.375, 0.250, -0.250, -0.125, 0.000, -0.375, 0.125, -0.125, -0.250, 0.000, 0.125, 0.000, -0.125, 0.250, 0.000, -0.125, 0.125, 0.125, 0.000, 0.000, 0.125, -0.250, 0.000, 0.000, -0.250, 0.375, 0.250, 0.125, 0.125, -0.125, 0.250, 0.375, -0.125, -0.250, 0.250, -0.375, 0.375, 0.125, 0.125, 0.000, 0.250, -0.250, 0.125, 0.250, -0.250, -0.250, 0.125, -0.250, 0.000, -0.375, -0.250, -0.125, 0.000, 0.125, 0.125, 0.375, 0.375, 0.125, -0.125, -0.375, 0.000, 0.125, -0.125, 0.000, -0.125, 0.375, 0.000, -0.375, 0.375, -0.250, 0.250, 0.375, -0.375, -0.250, 0.375, -0.125, 0.500, 0.250, 0.250, 0.125, -0.125, 0.000, 0.250, -0.375, 0.250, 0.000, 0.250, -0.250, 0.000, 0.250, -0.125, 0.125, -0.125, 0.250, 0.250, 0.250, 0.250, 0.125, 0.000, 0.250, -0.375, 0.000, 0.000, 0.125, -0.125, -0.250, 0.125, -0.125, 0.250, -0.375, 0.375, 0.000, -0.125, -0.125, 0.000, 0.125, 0.500, 0.125, -0.125, -0.250, 0.000, 0.125, -0.250, 0.375, 0.000, 0.375, -0.125, 0.000, 0.000, -0.125, 0.375, 0.375, 0.125, -0.250, 0.375, -0.125, 0.375, 0.125, 0.000, -0.250, 0.250, 0.250, -0.125, 0.125, 0.250, -0.125, 0.250, -0.125, 0.000, -0.125, 0.000, 0.000, -0.250, -0.250, 0.125, 0.500, -0.125, -0.375, 0.375, 0.000, 0.250, -0.125, 0.000, 0.250, -0.125, 0.000, 0.000, -0.250, -0.250, 0.125, 0.625, 0.250, -0.250, 0.000, 0.250, -0.125, 0.500, -0.250, -0.375, 0.125, -0.250, 0.000, -0.250, -0.250, 0.250, -0.375, -0.125, 0.000, 0.250, 0.125, 0.125, 0.250, -0.375, -0.250, 0.250, 0.250, -0.250, -0.250, 0.250};

bias4_t b4[10] = {-0.125, 0.375, -0.125, -0.125, 0.000, -0.125, -0.125, -0.125, -0.125, -0.125};

weight6_t w6[90] = {0.250, 0.000, 0.375, 0.500, 0.000, -0.250, -0.500, 0.375, 0.000, 0.250, 0.250, -0.375, 0.000, -0.125, 0.125, -0.125, -0.250, 0.250, -0.375, -0.125, 0.375, 0.000, -0.125, 0.500, -0.250, -0.125, 0.250, -0.500, -0.250, 0.500, -0.250, 0.125, 0.375, 0.500, 0.500, -0.500, -0.250, 0.125, 0.000, -0.250, 0.125, -0.375, -0.750, 0.000, 0.500, -0.125, -0.375, -0.625, 0.000, 0.250, -0.500, 0.250, -0.250, -0.250, -0.375, 0.375, -0.375, 0.250, 0.500, -0.875, -1.500, 0.250, 0.250, 0.000, 0.125, -0.125, 0.500, 0.250, 0.125, 0.250, 0.500, -0.250, 0.625, -0.250, 0.500, 0.625, 0.000, 0.000, 0.000, -0.375, -0.250, 0.625, 0.375, 0.000, 0.375, 0.250, 0.375, -0.250, 0.125, 0.125};

bias6_t b6[9] = {-0.125, -0.125, -0.125, -0.125, 0.375, -0.125, -0.125, 0.500, 0.250};

weight8_t w8[54] = {0.250, 0.000, 0.500, 0.375, 0.125, -0.125, -0.500, -0.500, -0.625, -0.375, -0.375, 0.750, 0.375, -0.250, -0.625, 0.125, -0.125, -0.125, 0.500, 0.125, -0.625, 0.125, 0.250, 0.125, -0.375, 0.125, -0.500, -0.625, 0.125, -0.625, 0.500, -0.250, 0.250, -0.125, -0.500, -0.125, 0.250, -0.125, 0.250, -0.125, 0.125, 0.000, -0.375, 0.500, -0.500, -0.375, -1.125, 0.125, -0.125, 0.375, 0.500, 0.125, -0.625, -0.250};

bias8_t b8[6] = {-0.125, 0.375, 0.000, 0.000, -0.125, 0.125};

weight10_t w10[24] = {-0.500, 0.000, 0.500, 0.000, 1.000, -0.250, -0.500, 0.125, 0.500, 0.000, -0.625, 0.375, 0.375, 0.000, -0.625, 0.625, 0.125, -0.625, -0.125, 0.625, -0.125, -0.375, -0.625, 0.125};

bias10_t b10[4] = {-0.250, 0.250, -0.125, -0.250};

weight12_t w12[24] = {-0.375, -0.375, -1.000, -0.875, -0.750, -0.875, 0.375, -0.250, -0.250, 0.250, 0.250, -0.250, 0.000, 0.500, -0.375, 0.375, 0.500, 0.125, 0.125, 0.750, -0.625, 0.250, 0.000, -0.125};

bias12_t b12[6] = {0.625, 0.625, 0.625, 0.500, 0.500, 0.875};

weight14_t w14[54] = {0.625, 0.000, -0.125, -0.750, 0.750, -0.250, 0.500, 1.125, -0.125, 0.750, -0.500, 0.000, 0.000, 0.000, 0.125, -0.125, 0.000, 0.500, 1.000, 0.000, 0.000, 0.125, 0.125, 0.250, -0.250, -0.125, 0.250, 0.125, -0.625, 0.625, 0.125, -0.250, 0.375, -0.375, -0.625, -0.250, -0.250, -0.375, 0.625, 0.000, 0.750, 1.000, 0.125, 0.250, -0.250, 0.250, -0.125, 1.000, -0.750, -0.250, 0.500, 0.250, 0.125, 0.750};

bias14_t b14[9] = {0.625, 0.000, 0.625, 0.875, 0.500, 0.875, 0.375, 0.625, 0.500};

weight16_t w16[90] = {0.125, 0.500, 0.625, -0.250, 0.000, 0.000, -0.250, 0.875, 0.250, 0.000, 0.250, -0.125, -0.250, -0.250, -0.500, 0.000, 0.000, -0.125, -0.250, -0.125, 0.375, 0.875, 0.000, 0.125, -0.250, -0.250, -0.250, -0.125, -0.250, -0.125, 0.250, -1.500, -1.125, 0.125, 0.000, 0.125, 0.875, 0.125, 0.000, 0.625, 0.500, 0.250, 0.875, 0.250, -0.375, 0.375, -0.250, 0.500, -0.125, 0.000, -0.750, 1.000, 0.250, -0.125, 0.500, 0.500, 0.500, 0.875, 0.125, 0.125, -0.250, 0.000, -0.125, -0.125, 0.000, 0.750, 0.000, 0.375, -0.250, 0.125, 0.000, 0.000, 0.000, 0.125, 0.000, 0.250, 0.125, 1.125, 0.000, 0.125, 0.250, 0.375, 0.500, 0.375, -0.250, 0.500, 0.000, 0.875, -0.250, 0.125};

bias16_t b16[10] = {-0.250, 0.625, 0.250, -0.250, 0.375, 0.375, 0.125, 0.500, 0.000, 0.000};
} // namespace hls4ml_axol1tl_v5
#endif
